<?xml version="1.0"?>
<opencv_storage>
<stage17>
  <maxWeakCount>7</maxWeakCount>
  <stageThreshold>-7.7465248107910156e-01</stageThreshold>
  <weakClassifiers>
    <_>
      <internalNodes>
        0 -1 14946 1412496861 824209485 2147350268 2071197693 1555749119
        -265473 1308262399 -65545</internalNodes>
      <leafValues>
        -4.6682465076446533e-01 6.4656770229339600e-01</leafValues></_>
    <_>
      <internalNodes>
        0 -1 20254 -1572609537 1754935315 86573086 -1808793570
        -2128539394 -1441145852 412338271 473553335</internalNodes>
      <leafValues>
        -5.5380356311798096e-01 5.1543390750885010e-01</leafValues></_>
    <_>
      <internalNodes>
        0 -1 18702 -201326594 -201331956 1408283880 1902109628 -95427890
        -2145778616 373260490 -750305140</internalNodes>
      <leafValues>
        -4.8147258162498474e-01 5.7671409845352173e-01</leafValues></_>
    <_>
      <internalNodes>
        0 -1 19260 -9461046 1124075425 1252962990 1741632431 -146289713
        294731687 -353439745 -201608530</internalNodes>
      <leafValues>
        -4.3904119729995728e-01 6.0098814964294434e-01</leafValues></_>
    <_>
      <internalNodes>
        0 -1 8787 -456082733 -1381040046 288449417 361529671 -141181711
        -1920630464 -2094996845 -2107406714</internalNodes>
      <leafValues>
        -6.9165521860122681e-01 4.1119241714477539e-01</leafValues></_>
    <_>
      <internalNodes>
        0 -1 13735 1165334270 -1864564713 -954460846 91554051
        -1935408848 -938768314 -1118430882 458883875</internalNodes>
      <leafValues>
        -7.0577400922775269e-01 3.8936460018157959e-01</leafValues></_>
    <_>
      <internalNodes>
        0 -1 6273 1371904904 -1245478400 -1862268878 1405321744
        -1981757054 -771751936 387564202 1599520907</internalNodes>
      <leafValues>
        -6.0353475809097290e-01 5.2045345306396484e-01</leafValues></_></weakClassifiers></stage17>
</opencv_storage>
