<?xml version="1.0"?>
<opencv_storage>
<stage20>
  <maxWeakCount>7</maxWeakCount>
  <stageThreshold>-9.7959882020950317e-01</stageThreshold>
  <weakClassifiers>
    <_>
      <internalNodes>
        0 -1 18668 -4641798 -35723270 -93274118 1576062972 1457045434
        1708146680 2146500538 1567730858</internalNodes>
      <leafValues>
        -5.0923484563827515e-01 6.1819803714752197e-01</leafValues></_>
    <_>
      <internalNodes>
        0 -1 570 -265010 1338245103 305292282 -1409941509 -1376945
        -814743826 491467215 -540278833</internalNodes>
      <leafValues>
        -4.9394521117210388e-01 5.6923854351043701e-01</leafValues></_>
    <_>
      <internalNodes>
        0 -1 14424 1129381070 -254769965 2014490122 -2146422160
        -503004090 -218103808 2069971951 -49778881</internalNodes>
      <leafValues>
        -7.2716146707534790e-01 3.8502138853073120e-01</leafValues></_>
    <_>
      <internalNodes>
        0 -1 15006 -1828460774 192946698 1082337308 407700512 4662362
        -1429396914 520456457 -1433531505</internalNodes>
      <leafValues>
        -6.2191492319107056e-01 4.5872589945793152e-01</leafValues></_>
    <_>
      <internalNodes>
        0 -1 21630 -121767026 -502329296 -1056947960 -1021460449
        -125634500 -1605844991 856855232 456118660</internalNodes>
      <leafValues>
        -6.3142699003219604e-01 4.1436725854873657e-01</leafValues></_>
    <_>
      <internalNodes>
        0 -1 22726 -1229333978 1602277670 -989721168 422216758
        1661393067 -670924757 -2104637280 -1953834573</internalNodes>
      <leafValues>
        -5.8313101530075073e-01 4.5522302389144897e-01</leafValues></_>
    <_>
      <internalNodes>
        0 -1 18024 -1333706509 -461055928 -1959656568 655229441
        -1597798400 -1350376950 134396426 -1425538005</internalNodes>
      <leafValues>
        -6.2219291925430298e-01 4.4339099526405334e-01</leafValues></_></weakClassifiers></stage20>
</opencv_storage>
