<?xml version="1.0"?>
<opencv_storage>
<stage18>
  <maxWeakCount>9</maxWeakCount>
  <stageThreshold>-9.8780524730682373e-01</stageThreshold>
  <weakClassifiers>
    <_>
      <internalNodes>
        0 -1 19736 1118029550 -429590984 -2144583574 -536735702
        -926416246 17301648 -1035802902 1944580296</internalNodes>
      <leafValues>
        -7.0053476095199585e-01 5.7113569974899292e-01</leafValues></_>
    <_>
      <internalNodes>
        0 -1 10645 -1822429202 -553534517 1401499750 -320798695
        -2004610869 -1609932454 821642287 1884291159</internalNodes>
      <leafValues>
        -6.6056430339813232e-01 4.6299004554748535e-01</leafValues></_>
    <_>
      <internalNodes>
        0 -1 3472 -766744854 -781643428 -116842494 -644874240
        -2104917617 -913762288 1000571055 248940715</internalNodes>
      <leafValues>
        -5.9245014190673828e-01 4.8853427171707153e-01</leafValues></_>
    <_>
      <internalNodes>
        0 -1 17456 -1347398319 -1342216711 1610577919 1866120572
        -1078145600 -200707 -869120007 -551903055</internalNodes>
      <leafValues>
        -5.0228512287139893e-01 5.7586288452148438e-01</leafValues></_>
    <_>
      <internalNodes>
        0 -1 20268 -1090786625 -290787442 1067573472 -1671299932
        1187975119 1162305501 2139334378 -3145857</internalNodes>
      <leafValues>
        -4.2405271530151367e-01 6.3592636585235596e-01</leafValues></_>
    <_>
      <internalNodes>
        0 -1 11463 672656927 -2143764086 -964656880 1493238049 956957216
        -1431691254 -1617720798 186664222</internalNodes>
      <leafValues>
        -6.6561174392700195e-01 4.3592709302902222e-01</leafValues></_>
    <_>
      <internalNodes>
        0 -1 10658 -2121793009 -981700020 -1339928443 1794557348
        -591394880 469827725 236019845 -608648255</internalNodes>
      <leafValues>
        -6.7142915725708008e-01 4.4238376617431641e-01</leafValues></_>
    <_>
      <internalNodes>
        0 -1 16951 -1644842497 -1711309839 -1519240979 -713568128
        -1947278798 -16812172 309782522 -403212858</internalNodes>
      <leafValues>
        -4.6855694055557251e-01 6.8816965818405151e-01</leafValues></_>
    <_>
      <internalNodes>
        0 -1 21026 1616363959 274760580 606362 461398220 1208009297
        -661579776 -2121760630 221911177</internalNodes>
      <leafValues>
        -7.0018517971038818e-01 4.3599817156791687e-01</leafValues></_></weakClassifiers></stage18>
</opencv_storage>
