<?xml version="1.0"?>
<opencv_storage>
<stage6>
  <maxWeakCount>7</maxWeakCount>
  <stageThreshold>-9.3040013313293457e-01</stageThreshold>
  <weakClassifiers>
    <_>
      <internalNodes>
        0 -1 8857 -1004227855 -2004344142 -476770161 -75574441
        -334636616 -291331888 -223641185 -1350856918</internalNodes>
      <leafValues>
        -6.7103350162506104e-01 6.3164722919464111e-01</leafValues></_>
    <_>
      <internalNodes>
        0 -1 15040 1501036543 -1087253730 997409495 1899055315
        -930938625 -1131740792 1215253242 1102029712</internalNodes>
      <leafValues>
        -6.8410408496856689e-01 5.4046738147735596e-01</leafValues></_>
    <_>
      <internalNodes>
        0 -1 17611 2037776357 -120540569 65559 335595695 -485490625
        -200278016 -2088422849 -1078244967</internalNodes>
      <leafValues>
        -5.5526185035705566e-01 5.8111780881881714e-01</leafValues></_>
    <_>
      <internalNodes>
        0 -1 11221 -724142863 1098916314 285816287 -302243507
        -1079273015 -1448466168 -1560233597 -1208778571</internalNodes>
      <leafValues>
        -6.9066852331161499e-01 4.5892143249511719e-01</leafValues></_>
    <_>
      <internalNodes>
        0 -1 21547 -14812370 -57715 1048214122 1965768744 -1494221381
        -303858177 1848371770 -980449125</internalNodes>
      <leafValues>
        -5.5921107530593872e-01 5.7648110389709473e-01</leafValues></_>
    <_>
      <internalNodes>
        0 -1 18204 959839219 1379812147 431233215 489018673 -1099769093
        -1098951173 -680266241 -550774389</internalNodes>
      <leafValues>
        -4.8268246650695801e-01 6.7899560928344727e-01</leafValues></_>
    <_>
      <internalNodes>
        0 -1 11381 -17324302 1905493923 -1878081394 -74210938 1086783651
        1593902273 421581678 167817691</internalNodes>
      <leafValues>
        -7.7943080663681030e-01 4.4048947095870972e-01</leafValues></_></weakClassifiers></stage6>
</opencv_storage>
