<?xml version="1.0"?>
<opencv_storage>
<stage11>
  <maxWeakCount>8</maxWeakCount>
  <stageThreshold>-1.4929796457290649e+00</stageThreshold>
  <weakClassifiers>
    <_>
      <internalNodes>
        0 -1 10598 -77091862 -316422070 -125927416 -42008511 -1950019329
        -215916381 -525300035 -1016018285</internalNodes>
      <leafValues>
        -6.3221883773803711e-01 6.0461145639419556e-01</leafValues></_>
    <_>
      <internalNodes>
        0 -1 11443 -585926157 2111254681 356367459 521329339 86707721
        -1431699327 -938130398 1522034417</internalNodes>
      <leafValues>
        -5.6958979368209839e-01 5.0058007240295410e-01</leafValues></_>
    <_>
      <internalNodes>
        0 -1 7681 273830143 -1870446437 -788508533 328801543 -1155600161
        -1336958830 -1341988213 269743047</internalNodes>
      <leafValues>
        -6.2425678968429565e-01 4.8459008336067200e-01</leafValues></_>
    <_>
      <internalNodes>
        0 -1 18105 -730877217 338995352 -914356526 883999406 1629545114
        941662464 771290011 -14621799</internalNodes>
      <leafValues>
        -6.9078201055526733e-01 4.0433418750762939e-01</leafValues></_>
    <_>
      <internalNodes>
        0 -1 17604 -7441 -9450717 2034195200 -479786207 -839527924
        1576079433 -785983744 -269506565</internalNodes>
      <leafValues>
        -4.7137680649757385e-01 6.4316785335540771e-01</leafValues></_>
    <_>
      <internalNodes>
        0 -1 15762 -639642612 -753884688 -1065308082 2027059539
        -1012886252 -939393014 -401458977 -635290693</internalNodes>
      <leafValues>
        -6.9226765632629395e-01 3.9540305733680725e-01</leafValues></_>
    <_>
      <internalNodes>
        0 -1 11404 -1752398107 1930241460 -1442614656 -1417108600
        2083356676 -1425870840 578816173 -1281176664</internalNodes>
      <leafValues>
        -6.0461020469665527e-01 4.6468538045883179e-01</leafValues></_>
    <_>
      <internalNodes>
        0 -1 19276 38904745 2092205361 -1509836591 255893931 -1570745943
        -351760192 958591419 398453433</internalNodes>
      <leafValues>
        -5.2638524770736694e-01 5.5277299880981445e-01</leafValues></_></weakClassifiers></stage11>
</opencv_storage>
