<?xml version="1.0"?>
<opencv_storage>
<stage7>
  <maxWeakCount>6</maxWeakCount>
  <stageThreshold>-1.5067700147628784e+00</stageThreshold>
  <weakClassifiers>
    <_>
      <internalNodes>
        0 -1 16138 1427176957 -273612813 2012610557 -6815745 -654779265
        -458753 2146959103 -272629761</internalNodes>
      <leafValues>
        -4.9946063756942749e-01 7.0574045181274414e-01</leafValues></_>
    <_>
      <internalNodes>
        0 -1 17637 2132629681 272169521 105072991 287689625 1631846556
        1582174273 1233720059 -542177141</internalNodes>
      <leafValues>
        -5.6568270921707153e-01 5.6778573989868164e-01</leafValues></_>
    <_>
      <internalNodes>
        0 -1 20657 74835895 137897407 805515706 1476403240 981579945
        -1442312799 951708091 1558010253</internalNodes>
      <leafValues>
        -7.5546115636825562e-01 4.2379400134086609e-01</leafValues></_>
    <_>
      <internalNodes>
        0 -1 15700 1367867182 -1624786807 1028403810 520348275
        -662206213 -577568381 1435075834 2068703423</internalNodes>
      <leafValues>
        -7.1098673343658447e-01 4.4494941830635071e-01</leafValues></_>
    <_>
      <internalNodes>
        0 -1 19765 -196084737 -262401972 1212194896 1406423420
        -348085790 -1474281216 19112587 -8714019</internalNodes>
      <leafValues>
        -5.8836150169372559e-01 5.1317340135574341e-01</leafValues></_>
    <_>
      <internalNodes>
        0 -1 17417 -2130685726 -1719053438 -1048555036 2110275344
        -1157260303 -645081152 1003028446 1068438207</internalNodes>
      <leafValues>
        -7.7736854553222656e-01 4.0798160433769226e-01</leafValues></_></weakClassifiers></stage7>
</opencv_storage>
