<?xml version="1.0"?>
<opencv_storage>
<stage19>
  <maxWeakCount>7</maxWeakCount>
  <stageThreshold>-7.8199917078018188e-01</stageThreshold>
  <weakClassifiers>
    <_>
      <internalNodes>
        0 -1 18026 1899282303 515178237 -1392754691 -1120880897
        -331825153 -1073938435 2111111167 -34275329</internalNodes>
      <leafValues>
        -4.2291668057441711e-01 6.8921566009521484e-01</leafValues></_>
    <_>
      <internalNodes>
        0 -1 17637 -1691011593 -1875247243 503274751 431325171
        2104808629 1315378181 1610600447 -1883284055</internalNodes>
      <leafValues>
        -5.1119333505630493e-01 6.0564416646957397e-01</leafValues></_>
    <_>
      <internalNodes>
        0 -1 16325 437469400 -604094122 669249247 -1815350453 -270155022
        -9011670 113497067 -414810137</internalNodes>
      <leafValues>
        -4.8444986343383789e-01 5.6117343902587891e-01</leafValues></_>
    <_>
      <internalNodes>
        0 -1 12196 -1206042733 -179565259 -1635450555 -133810911
        -2147145080 -124194789 -926733691 478972911</internalNodes>
      <leafValues>
        -6.1693626642227173e-01 4.5867988467216492e-01</leafValues></_>
    <_>
      <internalNodes>
        0 -1 8753 -1471082740 -246770873 88446794 921374860 -762839029
        -802404198 -1440677126 956237322</internalNodes>
      <leafValues>
        -6.7968732118606567e-01 4.1997182369232178e-01</leafValues></_>
    <_>
      <internalNodes>
        0 -1 16655 -736373179 -2141288051 1393610810 1428798871
        -1878617592 -2054762496 -2143129207 521804232</internalNodes>
      <leafValues>
        -7.0719313621520996e-01 3.5480916500091553e-01</leafValues></_>
    <_>
      <internalNodes>
        0 -1 5451 1250990423 -469626436 67372054 -1781791424 228164367
        -1025080802 -1601666668 581927307</internalNodes>
      <leafValues>
        -5.6634688377380371e-01 4.9509492516517639e-01</leafValues></_></weakClassifiers></stage19>
</opencv_storage>
