<?xml version="1.0"?>
<opencv_storage>
<stage13>
  <maxWeakCount>7</maxWeakCount>
  <stageThreshold>-6.3956487178802490e-01</stageThreshold>
  <weakClassifiers>
    <_>
      <internalNodes>
        0 -1 14838 -49219595 -810518663 2113798143 -1094910337
        -1410794317 -21233925 -1342194434 -1077936139</internalNodes>
      <leafValues>
        -3.5877862572669983e-01 7.0491802692413330e-01</leafValues></_>
    <_>
      <internalNodes>
        0 -1 20712 146523903 145498467 1526903043 -1474554993 583382249
        141598761 1116465835 148425103</internalNodes>
      <leafValues>
        -6.2139856815338135e-01 4.7256585955619812e-01</leafValues></_>
    <_>
      <internalNodes>
        0 -1 16947 -1679567393 -644779533 -138825052 -713580475
        -1241585926 -16845825 -2140078341 -732607907</internalNodes>
      <leafValues>
        -4.2492726445198059e-01 6.3628041744232178e-01</leafValues></_>
    <_>
      <internalNodes>
        0 -1 14230 -79441734 -1852112862 189483356 1531252992
        -1142318113 1929515017 1620290283 -1918163061</internalNodes>
      <leafValues>
        -5.0446480512619019e-01 5.6635624170303345e-01</leafValues></_>
    <_>
      <internalNodes>
        0 -1 12135 -1006895538 -1016921536 -535432762 -744660735
        603927999 -2033913849 25579674 -822056951</internalNodes>
      <leafValues>
        -7.0031803846359253e-01 4.0091606974601746e-01</leafValues></_>
    <_>
      <internalNodes>
        0 -1 18064 -251403350 -717095438 -1279524878 -245402709
        -936135905 -209750089 -747397138 -1072712885</internalNodes>
      <leafValues>
        -4.9381268024444580e-01 6.4267683029174805e-01</leafValues></_>
    <_>
      <internalNodes>
        0 -1 16078 -775499076 -650968489 -1850421027 1095668177
        -935272037 1426260059 8986846 254285988</internalNodes>
      <leafValues>
        -7.6434701681137085e-01 4.0328350663185120e-01</leafValues></_></weakClassifiers></stage13>
</opencv_storage>
