<?xml version="1.0"?>
<opencv_storage>
<stage10>
  <maxWeakCount>8</maxWeakCount>
  <stageThreshold>-5.1137137413024902e-01</stageThreshold>
  <weakClassifiers>
    <_>
      <internalNodes>
        0 -1 1168 -7425046 -7345392 1051721458 -1083490816 -1349591633
        -1879083014 -1894780981 252350346</internalNodes>
      <leafValues>
        -4.3113100528717041e-01 6.5733271837234497e-01</leafValues></_>
    <_>
      <internalNodes>
        0 -1 18765 852207754 1368198152 16875528 1498368743 -246625622
        285233217 -1735663445 2074082191</internalNodes>
      <leafValues>
        -6.3106209039688110e-01 4.8172470927238464e-01</leafValues></_>
    <_>
      <internalNodes>
        0 -1 12183 -540545105 -148664569 -170671734 -548370038
        -654997313 -610065022 1488709887 2075911823</internalNodes>
      <leafValues>
        -5.4579442739486694e-01 5.1303082704544067e-01</leafValues></_>
    <_>
      <internalNodes>
        0 -1 7999 -1305718347 -1843863308 1210172619 303661319
        1912639944 -2005220752 2048090859 2065421646</internalNodes>
      <leafValues>
        -6.8244010210037231e-01 4.0169140696525574e-01</leafValues></_>
    <_>
      <internalNodes>
        0 -1 16488 134227736 1816419840 1360107519 1342914618 328962493
        -1976678398 292218107 456855407</internalNodes>
      <leafValues>
        -6.9972634315490723e-01 3.9257317781448364e-01</leafValues></_>
    <_>
      <internalNodes>
        0 -1 20517 854913519 346327961 -1025051394 756073610 25511059
        1493991429 -2037800053 47388319</internalNodes>
      <leafValues>
        -6.6828882694244385e-01 4.0439832210540771e-01</leafValues></_>
    <_>
      <internalNodes>
        0 -1 19261 -67919952 2119962676 1081360 -2059099912 -475299281
        -1734294904 -1042045362 -1153438841</internalNodes>
      <leafValues>
        -6.2100535631179810e-01 4.4901531934738159e-01</leafValues></_>
    <_>
      <internalNodes>
        0 -1 17461 -1180610049 -634944353 360749014 359750356 -116801016
        -1592237824 197181848 -922707832</internalNodes>
      <leafValues>
        -5.1758784055709839e-01 5.5399781465530396e-01</leafValues></_></weakClassifiers></stage10>
</opencv_storage>
