<?xml version="1.0"?>
<opencv_storage>
<stage16>
  <maxWeakCount>8</maxWeakCount>
  <stageThreshold>-7.2472566366195679e-01</stageThreshold>
  <weakClassifiers>
    <_>
      <internalNodes>
        0 -1 18628 1574295884 -570565363 450611340 189614080 -40993
        -537002049 1322667228 1606802556</internalNodes>
      <leafValues>
        -5.2812069654464722e-01 6.0986351966857910e-01</leafValues></_>
    <_>
      <internalNodes>
        0 -1 11443 -1789934639 2113084921 -679095341 1027318978
        156977665 -349697462 -2011167890 1038690306</internalNodes>
      <leafValues>
        -5.4554456472396851e-01 5.0541257858276367e-01</leafValues></_>
    <_>
      <internalNodes>
        0 -1 9606 -531109167 -192226626 -1069543080 1345991617
        -1345393776 -1146393375 -2105441502 -2103332607</internalNodes>
      <leafValues>
        -5.8524143695831299e-01 4.4541132450103760e-01</leafValues></_>
    <_>
      <internalNodes>
        0 -1 14347 1169511390 891294383 -416316418 1426146190 -121392375
        -1950179200 -1744240125 1541032195</internalNodes>
      <leafValues>
        -6.9425058364868164e-01 4.2184969782829285e-01</leafValues></_>
    <_>
      <internalNodes>
        0 -1 16422 -611903730 -1239810045 -1073725240 1880850635
        -1993342708 -1151203301 -605547602 -205898981</internalNodes>
      <leafValues>
        -6.6872215270996094e-01 3.7232112884521484e-01</leafValues></_>
    <_>
      <internalNodes>
        0 -1 14132 -1613544671 -263126835 -972991109 -209711088
        -917740176 -1132453576 -1742735403 499653808</internalNodes>
      <leafValues>
        -7.0482712984085083e-01 3.6955815553665161e-01</leafValues></_>
    <_>
      <internalNodes>
        0 -1 12991 -103455890 -1387949787 -1542699381 241018416
        538062183 -517724952 -1643726465 -277763866</internalNodes>
      <leafValues>
        -5.7941675186157227e-01 4.6977090835571289e-01</leafValues></_>
    <_>
      <internalNodes>
        0 -1 18566 -1449634381 1217690555 322508099 306061588 8955144
        -536287224 146803649 969593116</internalNodes>
      <leafValues>
        -6.5141129493713379e-01 4.5874443650245667e-01</leafValues></_></weakClassifiers></stage16>
</opencv_storage>
