<?xml version="1.0"?>
<opencv_storage>
<stage3>
  <maxWeakCount>6</maxWeakCount>
  <stageThreshold>-9.3246030807495117e-01</stageThreshold>
  <weakClassifiers>
    <_>
      <internalNodes>
        0 -1 15053 -715134465 7471091 -1577061853 1885578034 1415515215
        29903877 -579216410 1615324738</internalNodes>
      <leafValues>
        -5.2714538574218750e-01 6.8124389648437500e-01</leafValues></_>
    <_>
      <internalNodes>
        0 -1 17082 -715876033 -376208619 3195091 -2138505134 -938718453
        -861011837 -503788940 -925959276</internalNodes>
      <leafValues>
        -5.3758496046066284e-01 6.1592853069305420e-01</leafValues></_>
    <_>
      <internalNodes>
        0 -1 335 -203435811 207326623 -1065275367 -1869497728 1885088064
        34586894 -242269163 1616306752</internalNodes>
      <leafValues>
        -5.8877557516098022e-01 5.9223759174346924e-01</leafValues></_>
    <_>
      <internalNodes>
        0 -1 22425 -16778245 782888703 2147483199 -218710358 -537966593
        1342144327 -34083081 -261685454</internalNodes>
      <leafValues>
        -5.2423816919326782e-01 6.2426233291625977e-01</leafValues></_>
    <_>
      <internalNodes>
        0 -1 14744 -1912093737 -1039169777 -2144259528 -1609776382
        -1060502344 1518225541 1298629136 -257626096</internalNodes>
      <leafValues>
        -5.8207136392593384e-01 5.4304736852645874e-01</leafValues></_>
    <_>
      <internalNodes>
        0 -1 18752 -117596161 751696499 -1191199343 -1867389571
        -654815794 -1124184201 -185108621 -667625870</internalNodes>
      <leafValues>
        -4.4626411795616150e-01 7.5320345163345337e-01</leafValues></_></weakClassifiers></stage3>
</opencv_storage>
