<?xml version="1.0"?>
<opencv_storage>
<stage14>
  <maxWeakCount>10</maxWeakCount>
  <stageThreshold>-8.3239036798477173e-01</stageThreshold>
  <weakClassifiers>
    <_>
      <internalNodes>
        0 -1 19263 1056948159 61865771 -16645 -218972294 1173706090
        644972367 -721582876 -438321797</internalNodes>
      <leafValues>
        -3.4673365950584412e-01 6.0518443584442139e-01</leafValues></_>
    <_>
      <internalNodes>
        0 -1 17019 -1090540273 1878519351 2130706236 -1074020506
        -1082147329 -32773 2147459018 -221333574</internalNodes>
      <leafValues>
        -3.6418673396110535e-01 5.8511793613433838e-01</leafValues></_>
    <_>
      <internalNodes>
        0 -1 9792 1648367321 -790308822 37789727 -535821727 -2029940197
        72990856 747225013 206905945</internalNodes>
      <leafValues>
        -5.3908103704452515e-01 4.0616253018379211e-01</leafValues></_>
    <_>
      <internalNodes>
        0 -1 23494 1302790206 -404150681 1048444920 -487903880
        -687884582 -494928019 -1367638065 -25182617</internalNodes>
      <leafValues>
        -4.1987055540084839e-01 4.9613460898399353e-01</leafValues></_>
    <_>
      <internalNodes>
        0 -1 18751 1359189663 1342708098 335610263 -601845688 42475627
        -1601076733 411160706 -283821305</internalNodes>
      <leafValues>
        -4.7380331158638000e-01 4.5449852943420410e-01</leafValues></_>
    <_>
      <internalNodes>
        0 -1 19430 -467799651 -1048050784 -2092836598 1660948581
        -1052071804 1887969665 1216481968 -1015521147</internalNodes>
      <leafValues>
        -4.6200257539749146e-01 4.4806203246116638e-01</leafValues></_>
    <_>
      <internalNodes>
        0 -1 23002 -1054954998 -720302065 21107138 -1810345879
        -922545432 -248934365 -2013060696 -250279554</internalNodes>
      <leafValues>
        -4.7685170173645020e-01 4.7315615415573120e-01</leafValues></_>
    <_>
      <internalNodes>
        0 -1 8037 1432222779 -1648378625 -16844801 1383691311
        -1258965931 1012399740 -25517705 -1459654146</internalNodes>
      <leafValues>
        -3.8462772965431213e-01 5.9835678339004517e-01</leafValues></_>
    <_>
      <internalNodes>
        0 -1 1381 -1051716555 -653492196 16793683 1481183235 -2012659456
        -1424422744 1242050914 1433424019</internalNodes>
      <leafValues>
        -5.6441986560821533e-01 4.0297794342041016e-01</leafValues></_>
    <_>
      <internalNodes>
        0 -1 17620 1546361755 58818561 65927 -818603967 -2147413681
        -1877376253 302616706 1635945127</internalNodes>
      <leafValues>
        -5.5182099342346191e-01 4.0365180373191833e-01</leafValues></_></weakClassifiers></stage14>
</opencv_storage>
