<?xml version="1.0"?>
<opencv_storage>
<stage2>
  <maxWeakCount>8</maxWeakCount>
  <stageThreshold>-9.9381959438323975e-01</stageThreshold>
  <weakClassifiers>
    <_>
      <internalNodes>
        0 -1 16389 -1360065921 -822346433 -1 -286195841 -1879617729
        -1107460225 -823199745 -285281033</internalNodes>
      <leafValues>
        -4.1121494770050049e-01 6.9311064481735229e-01</leafValues></_>
    <_>
      <internalNodes>
        0 -1 20316 -1554820103 -1542377411 138479915 -2000682937
        -896843326 -670367743 -527906650 -292365712</internalNodes>
      <leafValues>
        -5.5094057321548462e-01 5.1056164503097534e-01</leafValues></_>
    <_>
      <internalNodes>
        0 -1 15093 -1149399041 1899035733 -16893127 -181293017 6217966
        68445957 -1912642037 -813990053</internalNodes>
      <leafValues>
        -4.1481608152389526e-01 6.7406356334686279e-01</leafValues></_>
    <_>
      <internalNodes>
        0 -1 1163 1582102493 -82833144 -1862232879 -1310239331
        1400940599 233520 537631079 51052688</internalNodes>
      <leafValues>
        -5.0890356302261353e-01 5.4509866237640381e-01</leafValues></_>
    <_>
      <internalNodes>
        0 -1 18272 -130000617 -1798088699 -939355938 -2138528687
        -914341629 1478348809 -1035910460 -67333968</internalNodes>
      <leafValues>
        -6.1242777109146118e-01 4.3465572595596313e-01</leafValues></_>
    <_>
      <internalNodes>
        0 -1 16349 -1397383939 -297849377 922746879 1047183357
        -553806345 2111307639 -1275078729 -190857932</internalNodes>
      <leafValues>
        -4.9426743388175964e-01 5.5271506309509277e-01</leafValues></_>
    <_>
      <internalNodes>
        0 -1 17049 -1433108212 -750669681 -2129946364 -1309982373
        -200593179 -527793655 -368132087 -1357141106</internalNodes>
      <leafValues>
        -4.8138800263404846e-01 5.8869993686676025e-01</leafValues></_>
    <_>
      <internalNodes>
        0 -1 2134 -686075900 -753196592 8586163 -1714743536 -1509617662
        370705408 -1062809192 45616272</internalNodes>
      <leafValues>
        -7.2581124305725098e-01 4.0818762779235840e-01</leafValues></_></weakClassifiers></stage2>
</opencv_storage>
