<?xml version="1.0"?>
<opencv_storage>
<stage9>
  <maxWeakCount>9</maxWeakCount>
  <stageThreshold>-1.3840337991714478e+00</stageThreshold>
  <weakClassifiers>
    <_>
      <internalNodes>
        0 -1 17658 -1946189953 -1413579974 -20481 -1129119881 -272691389
        -8388737 1853840757 -19497243</internalNodes>
      <leafValues>
        -4.9464666843414307e-01 5.5692851543426514e-01</leafValues></_>
    <_>
      <internalNodes>
        0 -1 16370 1903228407 1429733299 -280921 825748475 1365593293
        -1324028594 2056617679 -5382246</internalNodes>
      <leafValues>
        -3.2251551747322083e-01 7.0753294229507446e-01</leafValues></_>
    <_>
      <internalNodes>
        0 -1 16269 760426723 59478257 554172567 1577095449 -1190618190
        -394264574 -2013019093 -157504768</internalNodes>
      <leafValues>
        -5.3822726011276245e-01 4.5393043756484985e-01</leafValues></_>
    <_>
      <internalNodes>
        0 -1 16247 1970632151 -248401479 -340460621 -1856670079
        -704799236 -210693910 -1492264353 -80489285</internalNodes>
      <leafValues>
        -3.3933427929878235e-01 6.8645173311233521e-01</leafValues></_>
    <_>
      <internalNodes>
        0 -1 23484 113246381 -1710194535 37019 -1575878469 -92274493
        -653983224 411680938 -1097133990</internalNodes>
      <leafValues>
        -5.7448166608810425e-01 3.9192005991935730e-01</leafValues></_>
    <_>
      <internalNodes>
        0 -1 517 -967550601 -1740602066 1090519203 -473415655 1216383698
        -937422736 839557355 826706076</internalNodes>
      <leafValues>
        -5.2259552478790283e-01 4.5533615350723267e-01</leafValues></_>
    <_>
      <internalNodes>
        0 -1 12552 -129755566 386986130 -1857875822 1346781313
        -2012741071 -106364400 1208592481 -163698392</internalNodes>
      <leafValues>
        -5.8367973566055298e-01 3.9715448021888733e-01</leafValues></_>
    <_>
      <internalNodes>
        0 -1 10082 2007655699 1061123367 2079815543 -1342739277
        -1610645724 -281019066 -276912685 -1338517804</internalNodes>
      <leafValues>
        -4.5316520333290100e-01 5.2099639177322388e-01</leafValues></_>
    <_>
      <internalNodes>
        0 -1 9834 563250370 -1051426806 269570450 159416646 -787889175
        -1607958488 -930610347 -915177344</internalNodes>
      <leafValues>
        -6.0172331333160400e-01 4.0087917447090149e-01</leafValues></_></weakClassifiers></stage9>
</opencv_storage>
