<?xml version="1.0"?>
<opencv_storage>
<stage16>
  <maxWeakCount>11</maxWeakCount>
  <stageThreshold>-1.0984389781951904e+00</stageThreshold>
  <weakClassifiers>
    <_>
      <internalNodes>
        0 -1 15869 -821733 774893419 -33554434 -1226129467 -1610925201
        -268435585 -1174839945 -90554646</internalNodes>
      <leafValues>
        -2.6715329289436340e-01 6.3715845346450806e-01</leafValues></_>
    <_>
      <internalNodes>
        0 -1 19284 -1336806907 -658505591 -1862123513 -1542815159
        -1030545051 -1600225151 -1995814843 -1349816287</internalNodes>
      <leafValues>
        -4.9931377172470093e-01 4.1788801550865173e-01</leafValues></_>
    <_>
      <internalNodes>
        0 -1 19238 -543107339 -943704335 -33722445 -1226762838
        -1615034229 -1354965378 -621703269 -17107637</internalNodes>
      <leafValues>
        -3.3878210186958313e-01 6.2743574380874634e-01</leafValues></_>
    <_>
      <internalNodes>
        0 -1 11400 -645933105 279172083 -16897 -2065299334 -729953297
        -1852682839 -671619601 707709634</internalNodes>
      <leafValues>
        -4.1316658258438110e-01 5.0382393598556519e-01</leafValues></_>
    <_>
      <internalNodes>
        0 -1 23161 17140219 1207963713 8980601 -1743192054 -536868725
        -750714512 -1577014901 -161772929</internalNodes>
      <leafValues>
        -4.3324029445648193e-01 4.5420801639556885e-01</leafValues></_>
    <_>
      <internalNodes>
        0 -1 19812 -134378277 1064303487 -1140850830 -1292386374
        2013251483 1207304183 -34607938 -455926216</internalNodes>
      <leafValues>
        -3.4641462564468384e-01 5.8416277170181274e-01</leafValues></_>
    <_>
      <internalNodes>
        0 -1 10163 -1651245603 1896955904 1073877041 295370772
        -939440048 -620609398 -133560671 417880745</internalNodes>
      <leafValues>
        -5.4624843597412109e-01 4.0506556630134583e-01</leafValues></_>
    <_>
      <internalNodes>
        0 -1 13771 -243168926 1363263953 939594170 -1808596727
        -201227638 -2002780140 -804777974 521805967</internalNodes>
      <leafValues>
        -5.6262379884719849e-01 4.0242260694503784e-01</leafValues></_>
    <_>
      <internalNodes>
        0 -1 21270 1472561537 -548290302 151081688 827343626 -1073705953
        989890586 -1744589951 -1088475126</internalNodes>
      <leafValues>
        -4.5571619272232056e-01 4.8939627408981323e-01</leafValues></_>
    <_>
      <internalNodes>
        0 -1 10871 769069281 377557061 524305 466436096 -2147213279
        1619689477 -1073704743 -4037480</internalNodes>
      <leafValues>
        -5.2473324537277222e-01 4.2315137386322021e-01</leafValues></_>
    <_>
      <internalNodes>
        0 -1 15945 2117850981 -1225853111 1325400010 419364731 -50438335
        1834188638 248428483 -40405553</internalNodes>
      <leafValues>
        -4.1296556591987610e-01 5.6988537311553955e-01</leafValues></_></weakClassifiers></stage16>
</opencv_storage>
