<?xml version="1.0"?>
<opencv_storage>
<stage11>
  <maxWeakCount>9</maxWeakCount>
  <stageThreshold>-9.4705766439437866e-01</stageThreshold>
  <weakClassifiers>
    <_>
      <internalNodes>
        0 -1 14374 -1527029897 -1900155018 -32833 -88932365 -1745413763
        -2261001 -296034891 -553717644</internalNodes>
      <leafValues>
        -3.6734694242477417e-01 6.0869562625885010e-01</leafValues></_>
    <_>
      <internalNodes>
        0 -1 16367 -4851723 -1792935947 -1074943185 -1082425551
        1354029741 362116836 1157237356 -338298813</internalNodes>
      <leafValues>
        -3.7541428208351135e-01 6.0985404253005981e-01</leafValues></_>
    <_>
      <internalNodes>
        0 -1 12097 300005631 1361073825 704511807 -115269429 -304621077
        -877452574 2130663327 -1950351522</internalNodes>
      <leafValues>
        -3.1006664037704468e-01 7.1469742059707642e-01</leafValues></_>
    <_>
      <internalNodes>
        0 -1 18067 51982653 -1608904658 1208584675 1392574742
        -1862074305 243974144 -786765327 -1201645488</internalNodes>
      <leafValues>
        -6.5011197328567505e-01 3.3689823746681213e-01</leafValues></_>
    <_>
      <internalNodes>
        0 -1 9214 1300047195 285278135 -21020684 -34079619 -16810435
        -816480395 1391388118 -1176658545</internalNodes>
      <leafValues>
        -4.2789557576179504e-01 5.4271006584167480e-01</leafValues></_>
    <_>
      <internalNodes>
        0 -1 22337 -2132117283 -1715191723 8527873 -720879358 147058825
        -2013134774 -1841280888 -1971175148</internalNodes>
      <leafValues>
        -6.0271167755126953e-01 3.8679602742195129e-01</leafValues></_>
    <_>
      <internalNodes>
        0 -1 2718 -1090846761 -4411414 713019639 1941826735 1803478444
        -1227571772 666178797 -78119187</internalNodes>
      <leafValues>
        -3.6588484048843384e-01 6.6720163822174072e-01</leafValues></_>
    <_>
      <internalNodes>
        0 -1 23439 -2126474277 -385515373 -1862250409 4850818 1208156297
        -1538977660 1619066890 -131192446</internalNodes>
      <leafValues>
        -4.4816228747367859e-01 5.0740158557891846e-01</leafValues></_>
    <_>
      <internalNodes>
        0 -1 14360 1744252671 -1862074510 905936183 1701506789
        -1399064097 -1980668676 -1221329 -340788182</internalNodes>
      <leafValues>
        -3.2730585336685181e-01 7.3683750629425049e-01</leafValues></_></weakClassifiers></stage11>
</opencv_storage>
