<?xml version="1.0"?>
<opencv_storage>
<stage18>
  <maxWeakCount>9</maxWeakCount>
  <stageThreshold>-7.7716940641403198e-01</stageThreshold>
  <weakClassifiers>
    <_>
      <internalNodes>
        0 -1 20292 -1967196187 -1896853520 -268566545 -856236169
        -1904779395 -18088065 -1376297025 -1902439169</internalNodes>
      <leafValues>
        -3.0094042420387268e-01 6.1538463830947876e-01</leafValues></_>
    <_>
      <internalNodes>
        0 -1 17019 -2118361 -528714 2130657086 -17125532 -545260097
        -32901 -118838 -420038998</internalNodes>
      <leafValues>
        -3.4442028403282166e-01 6.1208331584930420e-01</leafValues></_>
    <_>
      <internalNodes>
        0 -1 24018 -1323316771 157254184 1090715679 1011224775
        -788398038 -905314288 -929949781 -1361403264</internalNodes>
      <leafValues>
        -4.7396788001060486e-01 4.6638545393943787e-01</leafValues></_>
    <_>
      <internalNodes>
        0 -1 18333 1438865401 -1501241272 1073807758 -1736146613
        578813977 -259946494 -511573840 -675681640</internalNodes>
      <leafValues>
        -4.1989433765411377e-01 4.9566787481307983e-01</leafValues></_>
    <_>
      <internalNodes>
        0 -1 6314 1521703529 -18700085 -1090717843 1026796367
        -1443176345 -1840590009 2138914815 -1892971352</internalNodes>
      <leafValues>
        -3.8304719328880310e-01 5.5145931243896484e-01</leafValues></_>
    <_>
      <internalNodes>
        0 -1 23688 -291721223 -320143425 -70949 -21192706 1035321181
        -1476460674 394051554 -843397121</internalNodes>
      <leafValues>
        -4.0013897418975830e-01 5.0829178094863892e-01</leafValues></_>
    <_>
      <internalNodes>
        0 -1 15125 -17438457 788366611 -487102467 -1543561420 -621429543
        536280949 1593220059 -336864321</internalNodes>
      <leafValues>
        -3.0721512436866760e-01 7.2067427635192871e-01</leafValues></_>
    <_>
      <internalNodes>
        0 -1 9770 947613174 284944367 -1207960085 -1220579394 -729827245
        -360761356 -864054018 -310557624</internalNodes>
      <leafValues>
        -3.4879842400550842e-01 6.1827725172042847e-01</leafValues></_>
    <_>
      <internalNodes>
        0 -1 17532 -1610059711 -1567387328 -1979711470 286064649
        -1064664694 -1442840576 536885763 -1429583872</internalNodes>
      <leafValues>
        -5.8000618219375610e-01 3.8640618324279785e-01</leafValues></_></weakClassifiers></stage18>
</opencv_storage>
