<?xml version="1.0"?>
<opencv_storage>
<stage19>
  <maxWeakCount>10</maxWeakCount>
  <stageThreshold>-8.2198125123977661e-01</stageThreshold>
  <weakClassifiers>
    <_>
      <internalNodes>
        0 -1 20236 -1368443905 -1363267713 2147282942 -289735753
        -1459659394 -1048585 486100348 -285304327</internalNodes>
      <leafValues>
        -3.0967742204666138e-01 6.0408163070678711e-01</leafValues></_>
    <_>
      <internalNodes>
        0 -1 22764 -1350580357 -1359216706 -17829923 815382451
        -621842704 -268616205 2147479550 -17729689</internalNodes>
      <leafValues>
        -3.9601564407348633e-01 5.0868821144104004e-01</leafValues></_>
    <_>
      <internalNodes>
        0 -1 24062 -2096007630 1245937680 196753 -1072758655 -2147370456
        -922222592 -880684325 -893154334</internalNodes>
      <leafValues>
        -4.2868795990943909e-01 4.8995637893676758e-01</leafValues></_>
    <_>
      <internalNodes>
        0 -1 16499 -1950260009 1624376201 134217747 -1236102579
        571494937 -1601994624 -259976534 -1180776310</internalNodes>
      <leafValues>
        -4.4486817717552185e-01 4.7853466868400574e-01</leafValues></_>
    <_>
      <internalNodes>
        0 -1 24258 -490034516 -1056030715 143382 -514794858 806062761
        -1300068352 -805193573 1588540394</internalNodes>
      <leafValues>
        -4.7322532534599304e-01 4.8444381356239319e-01</leafValues></_>
    <_>
      <internalNodes>
        0 -1 15053 2081932569 834749877 -2063581044 -12170352 1476562251
        -805175277 805308576 160102281</internalNodes>
      <leafValues>
        -4.9212694168090820e-01 4.6103760600090027e-01</leafValues></_>
    <_>
      <internalNodes>
        0 -1 12343 -243053788 -804220911 335880142 17891591 -2139060222
        1376258057 -2147417687 1954163278</internalNodes>
      <leafValues>
        -6.0641789436340332e-01 3.6189401149749756e-01</leafValues></_>
    <_>
      <internalNodes>
        0 -1 7195 -515908149 -790466810 -536969225 934463459 -42087060
        -939819543 1064648572 -849598783</internalNodes>
      <leafValues>
        -3.8008466362953186e-01 5.7602161169052124e-01</leafValues></_>
    <_>
      <internalNodes>
        0 -1 9998 -1736016155 320145682 1342177321 -1857716209
        -2004662263 -931035902 1233316633 25993913</internalNodes>
      <leafValues>
        -4.9133428931236267e-01 4.4359633326530457e-01</leafValues></_>
    <_>
      <internalNodes>
        0 -1 8214 -138553577 1628518721 16810561 -678166527 -1828641982
        -251133696 591953 940212395</internalNodes>
      <leafValues>
        -4.7633934020996094e-01 4.6900397539138794e-01</leafValues></_></weakClassifiers></stage19>
</opencv_storage>
