<?xml version="1.0"?>
<opencv_storage>
<stage0>
  <maxWeakCount>6</maxWeakCount>
  <stageThreshold>-1.1598607301712036e+00</stageThreshold>
  <weakClassifiers>
    <_>
      <internalNodes>
        0 -1 15710 -251789313 1364319477 -688949257 1441109430
        -2063825777 10751586 1711204351 1079337599</internalNodes>
      <leafValues>
        -5.7605177164077759e-01 7.6985740661621094e-01</leafValues></_>
    <_>
      <internalNodes>
        0 -1 15759 -1426347037 -1975521434 -536870929 -89981067
        -1342239401 -268468737 -856200206 -323289360</internalNodes>
      <leafValues>
        -5.4605144262313843e-01 6.8743675947189331e-01</leafValues></_>
    <_>
      <internalNodes>
        0 -1 23094 -1431310369 -1371619905 -20987911 -298254666
        -268477274 -268435474 -419963529 -386339344</internalNodes>
      <leafValues>
        -5.5262815952301025e-01 6.5110421180725098e-01</leafValues></_>
    <_>
      <internalNodes>
        0 -1 18225 -1008786895 -1726889854 -2129346182 -804225023
        1108017159 -938475392 -779541808 -222519040</internalNodes>
      <leafValues>
        -6.0893201828002930e-01 5.5844086408615112e-01</leafValues></_>
    <_>
      <internalNodes>
        0 -1 10368 -668206193 -1877503999 268456025 4362 1662159426
        -2109075060 1342178249 5587176</internalNodes>
      <leafValues>
        -6.5558719635009766e-01 5.4704380035400391e-01</leafValues></_>
    <_>
      <internalNodes>
        0 -1 17511 -238753584 1007747457 -805257071 2097272864
        -926873462 -2013233146 213743 -635071862</internalNodes>
      <leafValues>
        -5.8340269327163696e-01 6.1201691627502441e-01</leafValues></_></weakClassifiers></stage0>
</opencv_storage>
