<?xml version="1.0"?>
<opencv_storage>
<stage15>
  <maxWeakCount>9</maxWeakCount>
  <stageThreshold>-6.4462655782699585e-01</stageThreshold>
  <weakClassifiers>
    <_>
      <internalNodes>
        0 -1 17631 -1103995275 -1610940425 -1073741857 1036649191
        -9085579 -1216381067 -570605579 -288695171</internalNodes>
      <leafValues>
        -4.0959408879280090e-01 5.8790171146392822e-01</leafValues></_>
    <_>
      <internalNodes>
        0 -1 18109 1974857621 1127306805 -589831 -550240477 1172622302
        -1972037920 263259274 -44701989</internalNodes>
      <leafValues>
        -3.7152615189552307e-01 6.0041594505310059e-01</leafValues></_>
    <_>
      <internalNodes>
        0 -1 12983 1614670214 99615237 -1878994894 966099144 -802414442
        545259648 537014341 1657444611</internalNodes>
      <leafValues>
        -6.5976911783218384e-01 3.2998874783515930e-01</leafValues></_>
    <_>
      <internalNodes>
        0 -1 7207 290927871 -1622964221 -782946269 -1320271849
        1107300659 -1813839866 170142209 -99975167</internalNodes>
      <leafValues>
        -4.9009820818901062e-01 4.5743027329444885e-01</leafValues></_>
    <_>
      <internalNodes>
        0 -1 22556 1435588554 -715931517 1075855762 -799816704
        -1068137394 -1837002496 -2139057910 1997415050</internalNodes>
      <leafValues>
        -4.9844959378242493e-01 4.3924826383590698e-01</leafValues></_>
    <_>
      <internalNodes>
        0 -1 13108 -366020159 -101843607 -1409877318 -223217347
        -1745922547 116948797 854939099 -1667752499</internalNodes>
      <leafValues>
        -4.6827062964439392e-01 4.9276238679885864e-01</leafValues></_>
    <_>
      <internalNodes>
        0 -1 19348 412446891 -1861222271 1078477135 -218103660
        -855619569 -2109038592 -2079800699 -627404608</internalNodes>
      <leafValues>
        -5.2502799034118652e-01 4.3001332879066467e-01</leafValues></_>
    <_>
      <internalNodes>
        0 -1 6455 833740387 929118513 2130689711 1462091767 -327290043
        -1138983299 1144833788 -1969257539</internalNodes>
      <leafValues>
        -4.0937754511833191e-01 5.6822359561920166e-01</leafValues></_>
    <_>
      <internalNodes>
        0 -1 8719 -1748905820 -136134656 1091624969 604115984 1879152391
        403030272 -2112687367 26526368</internalNodes>
      <leafValues>
        -6.5027660131454468e-01 3.7128314375877380e-01</leafValues></_></weakClassifiers></stage15>
</opencv_storage>
