<?xml version="1.0"?>
<opencv_storage>
<stage6>
  <maxWeakCount>7</maxWeakCount>
  <stageThreshold>-1.2957292795181274e+00</stageThreshold>
  <weakClassifiers>
    <_>
      <internalNodes>
        0 -1 14490 1878616047 -1352269905 -293650738 -228393802
        267904873 1468006271 -537971297 -1594171654</internalNodes>
      <leafValues>
        -4.4878956675529480e-01 6.0301035642623901e-01</leafValues></_>
    <_>
      <internalNodes>
        0 -1 22741 -367824161 37757429 353440503 283034029 -264214273
        -1442840439 -1676493333 -1392891355</internalNodes>
      <leafValues>
        -4.9616074562072754e-01 5.3885573148727417e-01</leafValues></_>
    <_>
      <internalNodes>
        0 -1 18765 -575422635 -10519555 -9 -1073971457 -1628963003
        -35667969 -1397424195 -1363247106</internalNodes>
      <leafValues>
        -4.0727993845939636e-01 6.0929626226425171e-01</leafValues></_>
    <_>
      <internalNodes>
        0 -1 10675 -1333654345 -662388568 1170216035 -1320611772
        679706762 181223560 44598216 1270467119</internalNodes>
      <leafValues>
        -5.0303679704666138e-01 4.9708849191665649e-01</leafValues></_>
    <_>
      <internalNodes>
        0 -1 17496 -1491127445 -1979121657 -1509949437 -1706000289
        -1925142038 -1574797304 -909516111 -1159962448</internalNodes>
      <leafValues>
        -6.5104442834854126e-01 3.5460814833641052e-01</leafValues></_>
    <_>
      <internalNodes>
        0 -1 11433 -5392194 2146379631 1056661523 1902724991 -1694581586
        -1342321170 1375244020 -285287809</internalNodes>
      <leafValues>
        -4.2196959257125854e-01 6.0772496461868286e-01</leafValues></_>
    <_>
      <internalNodes>
        0 -1 6811 2013175024 -236392910 -67907589 1394371835 -1073946673
        -205335577 -1361701281 -1563849719</internalNodes>
      <leafValues>
        -4.1937345266342163e-01 5.7125282287597656e-01</leafValues></_></weakClassifiers></stage6>
</opencv_storage>
