<?xml version="1.0"?>
<opencv_storage>
<stage17>
  <maxWeakCount>8</maxWeakCount>
  <stageThreshold>-1.0948791503906250e+00</stageThreshold>
  <weakClassifiers>
    <_>
      <internalNodes>
        0 -1 17457 -256740877 -1326221825 -1157644291 -419465226
        -1330528265 -1074364425 -1275872257 -1191755777</internalNodes>
      <leafValues>
        -4.4408252835273743e-01 6.7772966623306274e-01</leafValues></_>
    <_>
      <internalNodes>
        0 -1 21900 -212346842 -938502213 5395612 -1290612221 -1071450505
        -1868177356 -1706573580 -131405265</internalNodes>
      <leafValues>
        -6.1197054386138916e-01 5.1288270950317383e-01</leafValues></_>
    <_>
      <internalNodes>
        0 -1 12766 -257242417 -536913668 2145358847 2144295099
        -1105400601 -10756629 300937454 -1785094963</internalNodes>
      <leafValues>
        -4.4194370508193970e-01 6.0249269008636475e-01</leafValues></_>
    <_>
      <internalNodes>
        0 -1 20728 -5775378 2130534140 2138893689 1575818374 -648508754
        331128316 416910986 -3205393</internalNodes>
      <leafValues>
        -4.4134551286697388e-01 5.9365665912628174e-01</leafValues></_>
    <_>
      <internalNodes>
        0 -1 20292 -473828404 -587104104 327255568 1259176400 163154443
        1679859864 692713451 1978607789</internalNodes>
      <leafValues>
        -6.5264683961868286e-01 4.1940906643867493e-01</leafValues></_>
    <_>
      <internalNodes>
        0 -1 14311 927094783 -745397542 -863761479 1074498114
        -1575775093 -1633023286 -1073739639 -1307810679</internalNodes>
      <leafValues>
        -6.0825359821319580e-01 4.5867103338241577e-01</leafValues></_>
    <_>
      <internalNodes>
        0 -1 21981 -750565750 -610711651 712735322 -617355456
        -1494553720 -1715122355 -1307444293 -241458853</internalNodes>
      <leafValues>
        -4.6905025839805603e-01 6.2437951564788818e-01</leafValues></_>
    <_>
      <internalNodes>
        0 -1 16979 -2012639711 -928660462 8446021 -934919898 -637173638
        -360693628 -2004639728 -1367697345</internalNodes>
      <leafValues>
        -6.2683695554733276e-01 4.7567448019981384e-01</leafValues></_></weakClassifiers></stage17>
</opencv_storage>
