<?xml version="1.0"?>
<opencv_storage>
<stage19>
  <maxWeakCount>7</maxWeakCount>
  <stageThreshold>-1.1002006530761719e+00</stageThreshold>
  <weakClassifiers>
    <_>
      <internalNodes>
        0 -1 16422 -646710514 1078001714 1674212294 1820393547
        1616138240 -1057849328 -17148856 -96818277</internalNodes>
      <leafValues>
        -6.5203249454498291e-01 5.8742135763168335e-01</leafValues></_>
    <_>
      <internalNodes>
        0 -1 20712 146764687 546836875 151079440 674796422 809607632
        136382883 -70155851 496871851</internalNodes>
      <leafValues>
        -6.8102753162384033e-01 4.3093469738960266e-01</leafValues></_>
    <_>
      <internalNodes>
        0 -1 19200 -576530210 2065248769 -897565044 2105089161 -83712786
        -126729200 -1937065234 -569711736</internalNodes>
      <leafValues>
        -5.3711491823196411e-01 5.4150897264480591e-01</leafValues></_>
    <_>
      <internalNodes>
        0 -1 12949 2069614963 -2093274739 -159182845 -999980891
        281186959 -1421809331 840368494 -2003271179</internalNodes>
      <leafValues>
        -6.3838028907775879e-01 4.3380939960479736e-01</leafValues></_>
    <_>
      <internalNodes>
        0 -1 7084 -653111119 -620343228 -125790837 -754896512 302171305
        -1349869560 1342811025 -1693837264</internalNodes>
      <leafValues>
        -5.1997363567352295e-01 5.4740983247756958e-01</leafValues></_>
    <_>
      <internalNodes>
        0 -1 20590 1042937635 12732039 344113426 1561391946 -1066958464
        638517760 1040353409 452252194</internalNodes>
      <leafValues>
        -6.7636293172836304e-01 3.8852623105049133e-01</leafValues></_>
    <_>
      <internalNodes>
        0 -1 16330 -2060911731 -8312320 -1977053151 758334248 1122042293
        -880063558 -2079471316 254773898</internalNodes>
      <leafValues>
        -6.4684414863586426e-01 4.2453658580780029e-01</leafValues></_></weakClassifiers></stage19>
</opencv_storage>
