<?xml version="1.0"?>
<opencv_storage>
<stage5>
  <maxWeakCount>6</maxWeakCount>
  <stageThreshold>-1.3105554580688477e+00</stageThreshold>
  <weakClassifiers>
    <_>
      <internalNodes>
        0 -1 15566 288577015 858985881 -740336133 -541909505 -1212459553
        -72196622 -1281097729 -304641</internalNodes>
      <leafValues>
        -5.5721926689147949e-01 7.3656171560287476e-01</leafValues></_>
    <_>
      <internalNodes>
        0 -1 17635 -673712131 -545488640 306532591 1427177867 -394986020
        -268640116 -619271425 1002052089</internalNodes>
      <leafValues>
        -6.5669214725494385e-01 5.8544081449508667e-01</leafValues></_>
    <_>
      <internalNodes>
        0 -1 19765 -33554433 1427151572 489724154 -783953268 -268566594
        -604447236 486125311 -545792001</internalNodes>
      <leafValues>
        -4.9443957209587097e-01 7.4780780076980591e-01</leafValues></_>
    <_>
      <internalNodes>
        0 -1 18204 286274547 419762192 429216383 356469161 -1086369541
        -75626429 385286131 -4240961</internalNodes>
      <leafValues>
        -5.3104090690612793e-01 6.6857248544692993e-01</leafValues></_>
    <_>
      <internalNodes>
        0 -1 12887 -1456081426 -235806336 1091828562 2111673797
        -1846152257 -1914330116 42574763 -538341477</internalNodes>
      <leafValues>
        -7.6064753532409668e-01 4.7316282987594604e-01</leafValues></_>
    <_>
      <internalNodes>
        0 -1 15998 -8398116 -674297836 553713876 1498353792 -1165458790
        -1213873518 -2103727970 -1893070324</internalNodes>
      <leafValues>
        -7.7968299388885498e-01 4.5567363500595093e-01</leafValues></_></weakClassifiers></stage5>
</opencv_storage>
