<?xml version="1.0"?>
<opencv_storage>
<stage6>
  <maxWeakCount>6</maxWeakCount>
  <stageThreshold>-1.2272975444793701e+00</stageThreshold>
  <weakClassifiers>
    <_>
      <internalNodes>
        0 -1 15724 -16781810 -117440641 -200753478 -168886274 -289
        -201340865 -458760 -5570561</internalNodes>
      <leafValues>
        -6.5217393636703491e-01 6.8079352378845215e-01</leafValues></_>
    <_>
      <internalNodes>
        0 -1 15622 -256771073 -640313099 -1879638021 -928043 -998252801
        -117579521 -553717761 -2337</internalNodes>
      <leafValues>
        -5.1979029178619385e-01 7.1389555931091309e-01</leafValues></_>
    <_>
      <internalNodes>
        0 -1 19200 -175940404 -8716056 -2113103852 -539606706 -200484146
        -108916675 -1068842354 -858875254</internalNodes>
      <leafValues>
        -6.2578958272933960e-01 5.9384059906005859e-01</leafValues></_>
    <_>
      <internalNodes>
        0 -1 18768 1932106737 288953360 808454609 488320499 -257
        -110119745 -1610612745 -8709</internalNodes>
      <leafValues>
        -5.2021241188049316e-01 7.0036381483078003e-01</leafValues></_>
    <_>
      <internalNodes>
        0 -1 20268 -135659796 -5273714 -1056923520 1536098449 8683726
        37827010 1682473674 1603780619</internalNodes>
      <leafValues>
        -6.5028989315032959e-01 5.2915579080581665e-01</leafValues></_>
    <_>
      <internalNodes>
        0 -1 17611 -658311 -590571341 180757 285345993 -734742279
        -1740373900 -1954348097 -1640281687</internalNodes>
      <leafValues>
        -6.5906333923339844e-01 5.1293450593948364e-01</leafValues></_></weakClassifiers></stage6>
</opencv_storage>
