<?xml version="1.0"?>
<opencv_storage>
<stage14>
  <maxWeakCount>8</maxWeakCount>
  <stageThreshold>-1.4558178186416626e+00</stageThreshold>
  <weakClassifiers>
    <_>
      <internalNodes>
        0 -1 15665 -33751041 -172629775 -268435594 1433793376 1291832543
        1442597119 -1660944389 -1778395145</internalNodes>
      <leafValues>
        -5.2617800235748291e-01 6.2701255083084106e-01</leafValues></_>
    <_>
      <internalNodes>
        0 -1 15040 1546636143 -1725374273 -928451909 1091086587
        1480233466 -1892416887 160024972 1249391849</internalNodes>
      <leafValues>
        -6.2719064950942993e-01 4.7827532887458801e-01</leafValues></_>
    <_>
      <internalNodes>
        0 -1 24077 -413697419 1619143559 -1023343977 -872243193
        -1135844728 805462179 -888642903 -298364159</internalNodes>
      <leafValues>
        -5.5553036928176880e-01 5.1378160715103149e-01</leafValues></_>
    <_>
      <internalNodes>
        0 -1 8615 -208975689 1966276630 -1319058753 403796177 -402619735
        -111639417 -1320627583 800857329</internalNodes>
      <leafValues>
        -6.2776213884353638e-01 4.5331707596778870e-01</leafValues></_>
    <_>
      <internalNodes>
        0 -1 19732 -574369322 -761065336 403046404 839323822 1378191432
        -1037549550 1249903615 1116453611</internalNodes>
      <leafValues>
        -7.0263600349426270e-01 3.8699129223823547e-01</leafValues></_>
    <_>
      <internalNodes>
        0 -1 19556 2102659822 -619638626 -2097047739 -82498383
        -887299937 -1018887670 -1936502386 -379780882</internalNodes>
      <leafValues>
        -6.9296133518218994e-01 4.0445321798324585e-01</leafValues></_>
    <_>
      <internalNodes>
        0 -1 9142 -1852894753 -266337207 1073824031 1963266437 570616639
        -814415795 -1744830455 -1959722513</internalNodes>
      <leafValues>
        -5.9733766317367554e-01 5.1432180404663086e-01</leafValues></_>
    <_>
      <internalNodes>
        0 -1 18744 -68026381 -1196449822 1126701815 599367914
        -1358970894 -1360359881 -1547718665 -22040900</internalNodes>
      <leafValues>
        -4.6595740318298340e-01 6.3275295495986938e-01</leafValues></_></weakClassifiers></stage14>
</opencv_storage>
