<?xml version="1.0"?>
<opencv_storage>
<stage16>
  <maxWeakCount>7</maxWeakCount>
  <stageThreshold>-9.8309844732284546e-01</stageThreshold>
  <weakClassifiers>
    <_>
      <internalNodes>
        0 -1 15763 -16778002 -88080385 -1073954818 2146500543 -2052
        -402653185 -4276550 1002053626</internalNodes>
      <leafValues>
        -5.9497207403182983e-01 6.2434327602386475e-01</leafValues></_>
    <_>
      <internalNodes>
        0 -1 19297 -2009892037 -801872333 -2094984519 -929172455
        -1072066432 -367425400 1783791627 404708091</internalNodes>
      <leafValues>
        -5.8385610580444336e-01 5.3331857919692993e-01</leafValues></_>
    <_>
      <internalNodes>
        0 -1 14896 849022997 1228627179 -1449374836 -829878069
        -1576448595 -1398157047 42052288 -360251383</internalNodes>
      <leafValues>
        -6.3735556602478027e-01 4.6743768453598022e-01</leafValues></_>
    <_>
      <internalNodes>
        0 -1 22169 -706753212 -715157557 -855707650 1592143807
        2102167010 -1494413786 -557002793 -410090194</internalNodes>
      <leafValues>
        -5.1364272832870483e-01 5.8059054613113403e-01</leafValues></_>
    <_>
      <internalNodes>
        0 -1 17026 -2009599169 -794066765 16777282 1082982674 -145391548
        -667910076 -335044421 -1895137099</internalNodes>
      <leafValues>
        -6.9633203744888306e-01 4.3390920758247375e-01</leafValues></_>
    <_>
      <internalNodes>
        0 -1 7651 1232902623 -251618541 -1710515439 -1694412265
        -1560244081 -635785208 -1815415863 899273865</internalNodes>
      <leafValues>
        -5.9149247407913208e-01 4.6772608160972595e-01</leafValues></_>
    <_>
      <internalNodes>
        0 -1 17282 -1122698085 -1129004860 -2088689408 -1433583542
        -1441815801 -1106602235 -410345464 535672971</internalNodes>
      <leafValues>
        -6.1974555253982544e-01 4.7054073214530945e-01</leafValues></_></weakClassifiers></stage16>
</opencv_storage>
