<?xml version="1.0"?>
<opencv_storage>
<stage13>
  <maxWeakCount>7</maxWeakCount>
  <stageThreshold>-7.8708624839782715e-01</stageThreshold>
  <weakClassifiers>
    <_>
      <internalNodes>
        0 -1 16773 -51593995 -1376415499 -1080692737 -67273547
        -1084228226 -18921987 -147457 -1346530373</internalNodes>
      <leafValues>
        -3.8963532447814941e-01 7.1807968616485596e-01</leafValues></_>
    <_>
      <internalNodes>
        0 -1 22348 -421362770 -1041202740 1902535134 -1625122302
        -426174861 -1832910655 -2004672384 -877925638</internalNodes>
      <leafValues>
        -6.5079236030578613e-01 5.0137668848037720e-01</leafValues></_>
    <_>
      <internalNodes>
        0 -1 17095 538165593 -2108472047 1140916313 1920022047
        -1584864772 -2006541300 -846395159 414907819</internalNodes>
      <leafValues>
        -6.3104432821273804e-01 4.6099311113357544e-01</leafValues></_>
    <_>
      <internalNodes>
        0 -1 7300 2119203039 -811249595 7538690 176488577 -1953941609
        -844290943 -1862101509 -1424015104</internalNodes>
      <leafValues>
        -6.1730051040649414e-01 4.5950764417648315e-01</leafValues></_>
    <_>
      <internalNodes>
        0 -1 23870 -746642571 -787377983 -1732091789 -572034856
        1086900445 -1040187186 1749568784 -132116855</internalNodes>
      <leafValues>
        -5.2795201539993286e-01 5.7988113164901733e-01</leafValues></_>
    <_>
      <internalNodes>
        0 -1 10669 1976952779 -613334863 -259507688 1930641473 412157081
        -1969093882 992482053 992115459</internalNodes>
      <leafValues>
        -6.5462821722030640e-01 4.3869847059249878e-01</leafValues></_>
    <_>
      <internalNodes>
        0 -1 16810 -1047402509 -641728188 335928521 1574503425
        -1945843825 -1639923583 155240617 874057613</internalNodes>
      <leafValues>
        -5.7790583372116089e-01 5.2675968408584595e-01</leafValues></_></weakClassifiers></stage13>
</opencv_storage>
