<?xml version="1.0"?>
<opencv_storage>
<stage15>
  <maxWeakCount>8</maxWeakCount>
  <stageThreshold>-4.5442804694175720e-01</stageThreshold>
  <weakClassifiers>
    <_>
      <internalNodes>
        0 -1 9672 579399935 -1812140292 2063204095 -67109377 855291647
        -1963136820 1052442623 201313007</internalNodes>
      <leafValues>
        -4.7592386603355408e-01 6.7631703615188599e-01</leafValues></_>
    <_>
      <internalNodes>
        0 -1 15592 191009591 -703987689 -1056800489 -1043709950
        272720195 -813629440 -2146500543 -1148796209</internalNodes>
      <leafValues>
        -6.0705620050430298e-01 5.0442934036254883e-01</leafValues></_>
    <_>
      <internalNodes>
        0 -1 22018 -1962476670 -1475309565 17490106 -216806806
        1610670711 155747345 -1434221836 -476339525</internalNodes>
      <leafValues>
        -6.6866636276245117e-01 4.2597368359565735e-01</leafValues></_>
    <_>
      <internalNodes>
        0 -1 19287 285247677 2064189440 598682 -1626383152 -1610446197
        -1280671734 -429915919 -70283126</internalNodes>
      <leafValues>
        -5.5813068151473999e-01 5.1746892929077148e-01</leafValues></_>
    <_>
      <internalNodes>
        0 -1 9442 -1828454470 -1747643592 1073828127 1213302017
        -1272389973 -123600831 134341546 -1642231254</internalNodes>
      <leafValues>
        -6.5680247545242310e-01 4.3456199765205383e-01</leafValues></_>
    <_>
      <internalNodes>
        0 -1 21954 -984361685 -744783607 -930823532 -1072988137
        -1610368854 1876623 -903811856 -240934377</internalNodes>
      <leafValues>
        -5.4735213518142700e-01 5.2408361434936523e-01</leafValues></_>
    <_>
      <internalNodes>
        0 -1 16708 -587153192 -980351897 54608277 2036983813 -901660535
        -1935628022 805394664 254280704</internalNodes>
      <leafValues>
        -7.5315058231353760e-01 3.7847712635993958e-01</leafValues></_>
    <_>
      <internalNodes>
        0 -1 23595 -65126283 -537756714 -1686176086 -1093740726
        -604641284 -187369617 -682659915 -752827512</internalNodes>
      <leafValues>
        -5.1607364416122437e-01 5.5521392822265625e-01</leafValues></_></weakClassifiers></stage15>
</opencv_storage>
