<?xml version="1.0"?>
<opencv_storage>
<stage2>
  <maxWeakCount>5</maxWeakCount>
  <stageThreshold>-1.8978397846221924e+00</stageThreshold>
  <weakClassifiers>
    <_>
      <internalNodes>
        0 -1 9671 -654509825 -123669782 -1 -117575169 -50398465
        -1162321766 -553713665 -67176965</internalNodes>
      <leafValues>
        -6.1575406789779663e-01 8.3767229318618774e-01</leafValues></_>
    <_>
      <internalNodes>
        0 -1 17457 -793587245 -795671209 -1736112385 -690007810
        -1869429513 -641433386 -1866011761 -1169735761</internalNodes>
      <leafValues>
        -5.8406633138656616e-01 7.0758438110351562e-01</leafValues></_>
    <_>
      <internalNodes>
        0 -1 15621 1440602591 294682835 -582888095 1460916363 -642066209
        -891614277 -606298113 -571749397</internalNodes>
      <leafValues>
        -6.6751474142074585e-01 6.4163738489151001e-01</leafValues></_>
    <_>
      <internalNodes>
        0 -1 15775 -2049 -573177867 -101189641 2013263871 -923731721
        -1980722988 1090447103 -544482051</internalNodes>
      <leafValues>
        -5.8287817239761353e-01 7.0199066400527954e-01</leafValues></_>
    <_>
      <internalNodes>
        0 -1 13738 -1214974232 -1122643671 1569800446 1376999598
        -1286673670 -1196445525 2113321983 -1700091142</internalNodes>
      <leafValues>
        -7.5677865743637085e-01 5.1635974645614624e-01</leafValues></_></weakClassifiers></stage2>
</opencv_storage>
