<?xml version="1.0"?>
<opencv_storage>
<stage21>
  <maxWeakCount>8</maxWeakCount>
  <stageThreshold>-1.1861863136291504e+00</stageThreshold>
  <weakClassifiers>
    <_>
      <internalNodes>
        0 -1 16221 -1526816088 -619313401 805507601 -1861459965
        -1375141869 -1945632766 -1543404903 -1371328253</internalNodes>
      <leafValues>
        -7.3360657691955566e-01 5.4060506820678711e-01</leafValues></_>
    <_>
      <internalNodes>
        0 -1 18204 857739507 893059329 51845503 431446315 532043519
        -2223785 2120120303 -289447617</internalNodes>
      <leafValues>
        -4.9727335572242737e-01 5.3470855951309204e-01</leafValues></_>
    <_>
      <internalNodes>
        0 -1 18779 -2146315953 1351623009 268513303 -233569505 536904706
        -99016380 -1668984765 705423838</internalNodes>
      <leafValues>
        -5.3909909725189209e-01 5.0604206323623657e-01</leafValues></_>
    <_>
      <internalNodes>
        0 -1 20237 -370147617 -303203670 959447580 -579517824
        -1987006786 1315180460 1928698623 2144280127</internalNodes>
      <leafValues>
        -4.9234822392463684e-01 5.2810698747634888e-01</leafValues></_>
    <_>
      <internalNodes>
        0 -1 19713 1079443533 2143449472 -770366768 -610532712 34925200
        -1400098408 -939256804 -1450536856</internalNodes>
      <leafValues>
        -5.3164297342300415e-01 5.2431184053421021e-01</leafValues></_>
    <_>
      <internalNodes>
        0 -1 23100 -1009286909 -309821053 1092513808 -1832365040
        -224287404 1661097601 -1550855536 -358094797</internalNodes>
      <leafValues>
        -6.2024706602096558e-01 4.1836988925933838e-01</leafValues></_>
    <_>
      <internalNodes>
        0 -1 17664 -1099379533 -785782222 -654311821 1390148095 89919603
        1531367253 1568294911 -1154820870</internalNodes>
      <leafValues>
        -4.7685736417770386e-01 6.0293060541152954e-01</leafValues></_>
    <_>
      <internalNodes>
        0 -1 21467 508673843 15610579 1292095506 1503674371 1564768
        -1959611998 402674144 415426471</internalNodes>
      <leafValues>
        -6.5308135747909546e-01 4.3301048874855042e-01</leafValues></_></weakClassifiers></stage21>
</opencv_storage>
