<?xml version="1.0"?>
<opencv_storage>
<stage19>
  <maxWeakCount>8</maxWeakCount>
  <stageThreshold>-1.4497425556182861e+00</stageThreshold>
  <weakClassifiers>
    <_>
      <internalNodes>
        0 -1 7007 -711331202 1394143256 1509970068 -1621257847
        1127256474 -1693867216 -1406463541 -1348492405</internalNodes>
      <leafValues>
        -6.5517240762710571e-01 4.4781145453453064e-01</leafValues></_>
    <_>
      <internalNodes>
        0 -1 6559 1465873219 -1378149671 1476889125 -1819170173
        -659568401 -1464565632 -601259383 -91244885</internalNodes>
      <leafValues>
        -4.8071426153182983e-01 5.2964144945144653e-01</leafValues></_>
    <_>
      <internalNodes>
        0 -1 2154 -652741579 -745555616 425525277 59081121 738898176
        -1912437501 -1541520493 1998809425</internalNodes>
      <leafValues>
        -5.4340505599975586e-01 4.7293695807456970e-01</leafValues></_>
    <_>
      <internalNodes>
        0 -1 2745 274251508 -108244725 -2063563633 -1642592245
        -1073182611 -1752366969 327221479 1142218756</internalNodes>
      <leafValues>
        -6.4296269416809082e-01 4.1981792449951172e-01</leafValues></_>
    <_>
      <internalNodes>
        0 -1 7532 1945104874 1360248845 -2094513582 1884344479 315343494
        1107427968 -1863334071 -177873275</internalNodes>
      <leafValues>
        -6.4204794168472290e-01 3.7883567810058594e-01</leafValues></_>
    <_>
      <internalNodes>
        0 -1 5534 -16435617 -5243640 1061942751 -540156019 -10946646
        -416817400 1459614702 -704708806</internalNodes>
      <leafValues>
        -4.6839353442192078e-01 6.6936290264129639e-01</leafValues></_>
    <_>
      <internalNodes>
        0 -1 4727 818229407 691830964 -1071634096 -1072551096 2097165
        -499941119 -2137953536 207047170</internalNodes>
      <leafValues>
        -6.3463240861892700e-01 5.0191158056259155e-01</leafValues></_>
    <_>
      <internalNodes>
        0 -1 2506 -754626167 1461399896 956406673 412975552 -1867497320
        730372490 1074311307 -1944420097</internalNodes>
      <leafValues>
        -5.6033414602279663e-01 4.9371829628944397e-01</leafValues></_></weakClassifiers></stage19>
</opencv_storage>
