<?xml version="1.0"?>
<opencv_storage>
<stage8>
  <maxWeakCount>6</maxWeakCount>
  <stageThreshold>-1.5236393213272095e+00</stageThreshold>
  <weakClassifiers>
    <_>
      <internalNodes>
        0 -1 3915 -69075974 -1215708897 -1232845989 -640569295
        -264175718 -1417345407 -460466502 -67109926</internalNodes>
      <leafValues>
        -6.6705471277236938e-01 5.0219106674194336e-01</leafValues></_>
    <_>
      <internalNodes>
        0 -1 6996 -205529793 -752328680 -2117840316 -713479880
        -637494354 -6765950 575255107 -1050897</internalNodes>
      <leafValues>
        -5.5978822708129883e-01 5.6134688854217529e-01</leafValues></_>
    <_>
      <internalNodes>
        0 -1 3538 821293306 1939521947 -804396453 1372971423 293206674
        -1756888293 -385754625 1406139019</internalNodes>
      <leafValues>
        -6.9944959878921509e-01 4.6887031197547913e-01</leafValues></_>
    <_>
      <internalNodes>
        0 -1 6706 -213133505 554508547 84934680 2019532801 -1055082102
        -114785100 977578923 -1144028629</internalNodes>
      <leafValues>
        -4.7013202309608459e-01 6.5588229894638062e-01</leafValues></_>
    <_>
      <internalNodes>
        0 -1 5823 -796667450 -681841399 2064818433 -250765181 1372094423
        -41352448 -1045785853 1342957655</internalNodes>
      <leafValues>
        -7.1529245376586914e-01 4.5785909891128540e-01</leafValues></_>
    <_>
      <internalNodes>
        0 -1 5450 -243010814 1425503243 -664030289 2109427719 1368250559
        -976650181 -22959330 873074107</internalNodes>
      <leafValues>
        -7.3974204063415527e-01 4.1975778341293335e-01</leafValues></_></weakClassifiers></stage8>
</opencv_storage>
