<?xml version="1.0"?>
<opencv_storage>
<stage16>
  <maxWeakCount>7</maxWeakCount>
  <stageThreshold>-8.8285160064697266e-01</stageThreshold>
  <weakClassifiers>
    <_>
      <internalNodes>
        0 -1 6340 -83405905 132974639 1772799835 -203979565 -871276221
        1196363151 1890881759 1197145135</internalNodes>
      <leafValues>
        -6.9270831346511841e-01 4.3181818723678589e-01</leafValues></_>
    <_>
      <internalNodes>
        0 -1 2197 -1371155465 -477822969 1212252231 -993523049
        -2026828381 -364838510 1715534571 -364417889</internalNodes>
      <leafValues>
        -4.5716699957847595e-01 6.1397415399551392e-01</leafValues></_>
    <_>
      <internalNodes>
        0 -1 6932 -784265206 -550411059 -132500211 487295666 -560995105
        -1184296665 -636837254 1042950226</internalNodes>
      <leafValues>
        -6.7492848634719849e-01 4.1759145259857178e-01</leafValues></_>
    <_>
      <internalNodes>
        0 -1 6718 1913780182 -1053605881 -1592455156 -2130640117
        -1575754525 -1465744766 1293540312 219670873</internalNodes>
      <leafValues>
        -6.4485728740692139e-01 4.7516629099845886e-01</leafValues></_>
    <_>
      <internalNodes>
        0 -1 4353 -642071299 -1716496273 152050197 -1317437049
        -1269681445 -100367359 1974067967 -1930772257</internalNodes>
      <leafValues>
        -5.4887914657592773e-01 5.4237568378448486e-01</leafValues></_>
    <_>
      <internalNodes>
        0 -1 4124 -1650533897 -1153565727 -1097557937 -2064234864
        -34668946 -553654323 1782887117 -930289080</internalNodes>
      <leafValues>
        -4.7559013962745667e-01 6.4774829149246216e-01</leafValues></_>
    <_>
      <internalNodes>
        0 -1 5020 -1601181182 2057547858 -147574405 -450256815
        -245954691 -1990160367 -795830109 -982544365</internalNodes>
      <leafValues>
        -6.4363718032836914e-01 5.1132851839065552e-01</leafValues></_></weakClassifiers></stage16>
</opencv_storage>
