<?xml version="1.0"?>
<opencv_storage>
<stage17>
  <maxWeakCount>7</maxWeakCount>
  <stageThreshold>-1.9175590276718140e+00</stageThreshold>
  <weakClassifiers>
    <_>
      <internalNodes>
        0 -1 4943 414716152 -1913179429 -249998959 -1139074590
        -1404757082 -1702594152 -460480579 1073364847</internalNodes>
      <leafValues>
        -7.8412699699401855e-01 3.6058393120765686e-01</leafValues></_>
    <_>
      <internalNodes>
        0 -1 4472 -1072966562 -316438373 837094088 -352167932 1111922070
        1502118243 -2050277373 -1060650345</internalNodes>
      <leafValues>
        -6.1090433597564697e-01 4.3197888135910034e-01</leafValues></_>
    <_>
      <internalNodes>
        0 -1 6998 -66829611 -932795866 1627474457 -335437430 -1596988758
        -1365073820 -1357739935 -581835270</internalNodes>
      <leafValues>
        -5.0506311655044556e-01 5.6531465053558350e-01</leafValues></_>
    <_>
      <internalNodes>
        0 -1 7401 -807800045 -1609363072 -1073198827 313573400
        -979631093 -1996447406 1355125900 579507887</internalNodes>
      <leafValues>
        -5.9463661909103394e-01 5.2474743127822876e-01</leafValues></_>
    <_>
      <internalNodes>
        0 -1 3670 85658577 -1682762896 1963022129 -602314735 761992
        -1445287279 1134593059 -29314160</internalNodes>
      <leafValues>
        -5.1716369390487671e-01 5.4068100452423096e-01</leafValues></_>
    <_>
      <internalNodes>
        0 -1 2282 -135081737 -805327110 -6081809 268320255 334958815
        -127033 1449614293 -1073787403</internalNodes>
      <leafValues>
        -5.2152985334396362e-01 5.4395025968551636e-01</leafValues></_>
    <_>
      <internalNodes>
        0 -1 663 -1823360194 1493795027 1098907664 1065981702 657079018
        484492321 1489174554 1326096579</internalNodes>
      <leafValues>
        -6.3637131452560425e-01 4.7115463018417358e-01</leafValues></_></weakClassifiers></stage17>
</opencv_storage>
