<?xml version="1.0"?>
<opencv_storage>
<stage6>
  <maxWeakCount>6</maxWeakCount>
  <stageThreshold>-1.6471849679946899e+00</stageThreshold>
  <weakClassifiers>
    <_>
      <internalNodes>
        0 -1 4072 -67306529 -571472464 -258170965 -68087152 -107431169
        -1141014263 -790828097 -71450903</internalNodes>
      <leafValues>
        -6.9565218687057495e-01 5.3996449708938599e-01</leafValues></_>
    <_>
      <internalNodes>
        0 -1 6582 -783028029 -4202565 -12583941 -142608513 -8651777 -1
        -616579073 -4195397</internalNodes>
      <leafValues>
        -5.1930201053619385e-01 7.0652055740356445e-01</leafValues></_>
    <_>
      <internalNodes>
        0 -1 6281 -703603126 -251692600 -920891706 1440956767 -793773430
        848019628 1183039483 1397702751</internalNodes>
      <leafValues>
        -8.3678108453750610e-01 4.3513628840446472e-01</leafValues></_>
    <_>
      <internalNodes>
        0 -1 61 -573440005 -241063991 469958663 831750420 -1054109189
        -448757615 -477914113 1367463321</internalNodes>
      <leafValues>
        -6.3239854574203491e-01 5.7755529880523682e-01</leafValues></_>
    <_>
      <internalNodes>
        0 -1 7558 -741608982 -143931998 859168928 -212374658 2001679072
        1124108547 -500440949 1433796199</internalNodes>
      <leafValues>
        -8.2193428277969360e-01 4.3123519420623779e-01</leafValues></_>
    <_>
      <internalNodes>
        0 -1 6306 -201347393 -36746469 1765873867 -620136057 970898153
        -1629167462 270201391 1527511871</internalNodes>
      <leafValues>
        -6.6620367765426636e-01 4.8443368077278137e-01</leafValues></_></weakClassifiers></stage6>
</opencv_storage>
