<?xml version="1.0"?>
<opencv_storage>
<stage14>
  <maxWeakCount>8</maxWeakCount>
  <stageThreshold>-1.4076925516128540e+00</stageThreshold>
  <weakClassifiers>
    <_>
      <internalNodes>
        0 -1 7241 1439683278 -552004154 1073963591 -652553773 287822058
        1380847809 -2111586085 -678958349</internalNodes>
      <leafValues>
        -6.3440859317779541e-01 4.5657780766487122e-01</leafValues></_>
    <_>
      <internalNodes>
        0 -1 2942 465093117 -879411024 687867419 -2054206451 -1665604705
        -81048356 -1974822265 -1087675769</internalNodes>
      <leafValues>
        -5.6552863121032715e-01 5.4193234443664551e-01</leafValues></_>
    <_>
      <internalNodes>
        0 -1 4789 -756032822 -653456865 -98053869 -602070321 -95923646
        -831979198 -134117154 -1069496256</internalNodes>
      <leafValues>
        -7.1951168775558472e-01 4.6158289909362793e-01</leafValues></_>
    <_>
      <internalNodes>
        0 -1 8083 -421529635 -1936572299 21537035 443553 -2113523412
        948568089 1612898627 1087080714</internalNodes>
      <leafValues>
        -5.5902785062789917e-01 5.2923256158828735e-01</leafValues></_>
    <_>
      <internalNodes>
        0 -1 4501 -800863011 -205316 -76021889 -806354945 -1041004573
        -5771009 -570440713 -1895880865</internalNodes>
      <leafValues>
        -4.9595934152603149e-01 5.9509575366973877e-01</leafValues></_>
    <_>
      <internalNodes>
        0 -1 4565 -1851801346 1436107921 1342218844 -569355852
        -1746165417 -326770160 -1507946709 1587825497</internalNodes>
      <leafValues>
        -6.2651675939559937e-01 4.5015296339988708e-01</leafValues></_>
    <_>
      <internalNodes>
        0 -1 3057 -1835147653 -148887408 168612007 -662123111 -670760310
        -845668352 1250067855 -827527381</internalNodes>
      <leafValues>
        -5.8691024780273438e-01 5.3052139282226562e-01</leafValues></_>
    <_>
      <internalNodes>
        0 -1 5943 -8573441 -279584819 68108199 2144272349 1844170367
        -1623212129 1094269950 -738001017</internalNodes>
      <leafValues>
        -4.7854068875312805e-01 6.6469496488571167e-01</leafValues></_></weakClassifiers></stage14>
</opencv_storage>
