<?xml version="1.0"?>
<opencv_storage>
<cascade>
  <stageType>BOOST</stageType>
  <featureType>LBP</featureType>
  <height>24</height>
  <width>24</width>
  <stageParams>
    <boostType>GAB</boostType>
    <minHitRate>9.9900001287460327e-01</minHitRate>
    <maxFalseAlarm>5.0000000000000000e-01</maxFalseAlarm>
    <weightTrimRate>9.4999999999999996e-01</weightTrimRate>
    <maxDepth>1</maxDepth>
    <maxWeakCount>100</maxWeakCount></stageParams>
  <featureParams>
    <maxCatCount>256</maxCatCount>
    <featSize>1</featSize></featureParams>
  <stageNum>20</stageNum>
  <stages>
    <!-- stage 0 -->
    <_>
      <maxWeakCount>4</maxWeakCount>
      <stageThreshold>-1.5933679342269897e+00</stageThreshold>
      <weakClassifiers>
        <_>
          <internalNodes>
            0 -1 6 -788465701 -184487037 -1073688487 -184433645
            -536838000 -922714112 -536827237 -4078961</internalNodes>
          <leafValues>
            -8.6556357145309448e-01 8.1026136875152588e-01</leafValues></_>
        <_>
          <internalNodes>
            0 -1 79 -3146774 -3870 -605403582 -76856765 -34677046
            -1662035751 -17840162 -606085169</internalNodes>
          <leafValues>
            -7.3750263452529907e-01 8.6107158660888672e-01</leafValues></_>
        <_>
          <internalNodes>
            0 -1 11 -168296481 -146677376 1346992211 -775171839
            -779565030 788594696 1384237307 475625583</internalNodes>
          <leafValues>
            -7.6024663448333740e-01 7.7509725093841553e-01</leafValues></_>
        <_>
          <internalNodes>
            0 -1 38 -167380758 -675034112 -850296440 -246685694
            -1844770581 -1744797432 -725247013 -195040593</internalNodes>
          <leafValues>
            -7.7389270067214966e-01 7.6994496583938599e-01</leafValues></_></weakClassifiers></_>
    <!-- stage 1 -->
    <_>
      <maxWeakCount>5</maxWeakCount>
      <stageThreshold>-9.7159850597381592e-01</stageThreshold>
      <weakClassifiers>
        <_>
          <internalNodes>
            0 -1 98 -290 -554910068 -36909444 -578949840 -196610
            1692200636 -538968065 -2097153</internalNodes>
          <leafValues>
            -7.2530573606491089e-01 8.2283884286880493e-01</leafValues></_>
        <_>
          <internalNodes>
            0 -1 25 -20383496 -8351406 -805260809 -170789441 -792659814
            -662025726 -1608977489 -2098209</internalNodes>
          <leafValues>
            -8.8289600610733032e-01 6.4966487884521484e-01</leafValues></_>
        <_>
          <internalNodes>
            0 -1 82 -146017558 -714104626 -805191102 -372289534
            -1039980022 595607554 -1171285265 -214961429</internalNodes>
          <leafValues>
            -7.5979065895080566e-01 7.2965705394744873e-01</leafValues></_>
        <_>
          <internalNodes>
            0 -1 53 -1073233406 -116686269 -2147287031 -785526568
            -527783797 -2113863680 1107466267 -955268853</internalNodes>
          <leafValues>
            -7.4272072315216064e-01 6.9979226589202881e-01</leafValues></_>
        <_>
          <internalNodes>
            0 -1 22 -543984641 -712351653 285278481 1364395153
            -2105353557 1031929860 277841947 457004431</internalNodes>
          <leafValues>
            -7.4373936653137207e-01 6.9660162925720215e-01</leafValues></_></weakClassifiers></_>
    <!-- stage 2 -->
    <_>
      <maxWeakCount>5</maxWeakCount>
      <stageThreshold>-1.0182213783264160e+00</stageThreshold>
      <weakClassifiers>
        <_>
          <internalNodes>
            0 -1 89 -2069 -74772335 830554114 1465319682 -617889636
            696451080 1481101967 1461407819</internalNodes>
          <leafValues>
            -7.7754008769989014e-01 6.8262910842895508e-01</leafValues></_>
        <_>
          <internalNodes>
            0 -1 106 -67112470 -754461749 537100424 -115092597
            -217397110 34242560 -1051989301 -242484301</internalNodes>
          <leafValues>
            -6.8041402101516724e-01 6.8627250194549561e-01</leafValues></_>
        <_>
          <internalNodes>
            0 -1 29 -67963937 2108145808 -1233589227 2042950128
            -670507329 -71589886 -1467950450 -92209712</internalNodes>
          <leafValues>
            -7.6995080709457397e-01 6.1875104904174805e-01</leafValues></_>
        <_>
          <internalNodes>
            0 -1 83 -539496722 -763133824 269107394 2073531227
            -442597174 1082851331 1926943707 -612630561</internalNodes>
          <leafValues>
            -7.4370700120925903e-01 6.1550718545913696e-01</leafValues></_>
        <_>
          <internalNodes>
            0 -1 3 -44837665 -35667705 -1341060763 -750559201 1410545724
            1127910234 -331333109 1995826100</internalNodes>
          <leafValues>
            -7.7027624845504761e-01 5.9417635202407837e-01</leafValues></_></weakClassifiers></_>
    <!-- stage 3 -->
    <_>
      <maxWeakCount>5</maxWeakCount>
      <stageThreshold>-1.0459398031234741e+00</stageThreshold>
      <weakClassifiers>
        <_>
          <internalNodes>
            0 -1 55 -10683652 -19094344 -654196425 -47198263 -74726657
            -539243314 -1144285265 -2101505</internalNodes>
          <leafValues>
            -8.5804814100265503e-01 5.5904209613800049e-01</leafValues></_>
        <_>
          <internalNodes>
            0 -1 91 -1 -139268 -131076 2147352303 -1099890776
            -1746613576 1250212859 -16385</internalNodes>
          <leafValues>
            -6.0037297010421753e-01 7.3129725456237793e-01</leafValues></_>
        <_>
          <internalNodes>
            0 -1 60 -142877494 -78988408 1342821088 -221293100
            -241443766 -729063358 -604513337 1422385151</internalNodes>
          <leafValues>
            -7.7031791210174561e-01 5.3650677204132080e-01</leafValues></_>
        <_>
          <internalNodes>
            0 -1 73 -538969146 -234622775 -1067810256 -161766691
            -1964836148 -2143097718 1103471535 1347675791</internalNodes>
          <leafValues>
            -7.7581965923309326e-01 5.2277934551239014e-01</leafValues></_>
        <_>
          <internalNodes>
            0 -1 27 -125248261 -12582544 1343570079 -149585917
            -925066053 -1213027893 -863323457 -68500801</internalNodes>
          <leafValues>
            -6.3765943050384521e-01 6.6001993417739868e-01</leafValues></_></weakClassifiers></_>
    <!-- stage 4 -->
    <_>
      <maxWeakCount>5</maxWeakCount>
      <stageThreshold>-1.0332255363464355e+00</stageThreshold>
      <weakClassifiers>
        <_>
          <internalNodes>
            0 -1 95 -1060912945 -689973033 -537932289 -35661313
            -1178616321 -257 -17 -2110721</internalNodes>
          <leafValues>
            -5.9603244066238403e-01 7.4186307191848755e-01</leafValues></_>
        <_>
          <internalNodes>
            0 -1 45 -110821419 -103424047 1896116767 -15363365
            -603612689 -1093987831 2031172335 992221564</internalNodes>
          <leafValues>
            -7.1057808399200439e-01 5.2974957227706909e-01</leafValues></_>
        <_>
          <internalNodes>
            0 -1 67 -72876058 -137383673 411154498 -176957067 1381754759
            1885368387 1409360707 1663524899</internalNodes>
          <leafValues>
            -8.5226994752883911e-01 4.3709978461265564e-01</leafValues></_>
        <_>
          <internalNodes>
            0 -1 13 -704925217 -573488880 -855172645 -83782699
            1719763582 -122412845 -1584879425 -264182367</internalNodes>
          <leafValues>
            -7.1856623888015747e-01 5.2898049354553223e-01</leafValues></_>
        <_>
          <internalNodes>
            0 -1 104 -648021270 -713043317 -1870606142 1509948367
            1356314283 1094832192 -977022001 -315626753</internalNodes>
          <leafValues>
            -6.2258547544479370e-01 6.0389345884323120e-01</leafValues></_></weakClassifiers></_>
    <!-- stage 5 -->
    <_>
      <maxWeakCount>5</maxWeakCount>
      <stageThreshold>-9.8525494337081909e-01</stageThreshold>
      <weakClassifiers>
        <_>
          <internalNodes>
            0 -1 97 -255733558 -615802681 -1866211941 -711604841
            -670314341 -1106607583 142780143 -637535749</internalNodes>
          <leafValues>
            -6.8488746881484985e-01 5.9887534379959106e-01</leafValues></_>
        <_>
          <internalNodes>
            0 -1 80 -67120162 -203976297 1245723580 1430262465
            -116407332 -1163616000 1782635230 -543691009</internalNodes>
          <leafValues>
            -6.7677611112594604e-01 5.4740786552429199e-01</leafValues></_>
        <_>
          <internalNodes>
            0 -1 105 -203425062 -754330758 285773960 890344959
            1352396750 -771391424 1084066299 -618660929</internalNodes>
          <leafValues>
            -6.7595851421356201e-01 5.4355430603027344e-01</leafValues></_>
        <_>
          <internalNodes>
            0 -1 9 -1211760641 -1076689537 1633253887 1402689665
            768553805 674890753 2038653182 2143099084</internalNodes>
          <leafValues>
            -7.8418135643005371e-01 4.7753712534904480e-01</leafValues></_>
        <_>
          <internalNodes>
            0 -1 70 -791948922 -167780889 -1820364801 -33554946
            -988291586 -780161025 -1863584275 -975191617</internalNodes>
          <leafValues>
            -5.8970332145690918e-01 6.1703562736511230e-01</leafValues></_></weakClassifiers></_>
    <!-- stage 6 -->
    <_>
      <maxWeakCount>6</maxWeakCount>
      <stageThreshold>-1.6471849679946899e+00</stageThreshold>
      <weakClassifiers>
        <_>
          <internalNodes>
            0 -1 37 -67306529 -571472464 -258170965 -68087152 -107431169
            -1141014263 -790828097 -71450903</internalNodes>
          <leafValues>
            -6.9565218687057495e-01 5.3996449708938599e-01</leafValues></_>
        <_>
          <internalNodes>
            0 -1 86 -783028029 -4202565 -12583941 -142608513 -8651777 -1
            -616579073 -4195397</internalNodes>
          <leafValues>
            -5.1930201053619385e-01 7.0652055740356445e-01</leafValues></_>
        <_>
          <internalNodes>
            0 -1 78 -703603126 -251692600 -920891706 1440956767
            -793773430 848019628 1183039483 1397702751</internalNodes>
          <leafValues>
            -8.3678108453750610e-01 4.3513628840446472e-01</leafValues></_>
        <_>
          <internalNodes>
            0 -1 0 -573440005 -241063991 469958663 831750420 -1054109189
            -448757615 -477914113 1367463321</internalNodes>
          <leafValues>
            -6.3239854574203491e-01 5.7755529880523682e-01</leafValues></_>
        <_>
          <internalNodes>
            0 -1 111 -741608982 -143931998 859168928 -212374658
            2001679072 1124108547 -500440949 1433796199</internalNodes>
          <leafValues>
            -8.2193428277969360e-01 4.3123519420623779e-01</leafValues></_>
        <_>
          <internalNodes>
            0 -1 81 -201347393 -36746469 1765873867 -620136057 970898153
            -1629167462 270201391 1527511871</internalNodes>
          <leafValues>
            -6.6620367765426636e-01 4.8443368077278137e-01</leafValues></_></weakClassifiers></_>
    <!-- stage 7 -->
    <_>
      <maxWeakCount>6</maxWeakCount>
      <stageThreshold>-7.5324827432632446e-01</stageThreshold>
      <weakClassifiers>
        <_>
          <internalNodes>
            0 -1 10 -83823617 -104365829 -636352129 1570046291
            -351225110 -1216110446 -12529921 -13248357</internalNodes>
          <leafValues>
            -6.3502109050750732e-01 5.7224333286285400e-01</leafValues></_>
        <_>
          <internalNodes>
            0 -1 91 -679483401 -582450556 2910324 1913449103 -10717012
            -1465603960 1786801070 -95307045</internalNodes>
          <leafValues>
            -6.5997558832168579e-01 4.9714374542236328e-01</leafValues></_>
        <_>
          <internalNodes>
            0 -1 33 -1723397993 -619323119 -1857500753 -720241901
            -917989189 -1625707997 1435629819 486666270</internalNodes>
          <leafValues>
            -5.9213948249816895e-01 5.1444905996322632e-01</leafValues></_>
        <_>
          <internalNodes>
            0 -1 69 -95832097 -581495131 436565975 1570689527 595974079
            -125972085 494127899 968375565</internalNodes>
          <leafValues>
            -7.6231783628463745e-01 3.9339199662208557e-01</leafValues></_>
        <_>
          <internalNodes>
            0 -1 59 -126893054 1468982090 -2142611558 -509361917
            -198207237 1485027753 -786958325 1078974555</internalNodes>
          <leafValues>
            -7.9155522584915161e-01 3.9056318998336792e-01</leafValues></_>
        <_>
          <internalNodes>
            0 -1 76 -1311263240 -1815395579 -920322032 1888833551
            -1723236028 -2078191351 -1873282817 -149685549</internalNodes>
          <leafValues>
            -7.0508652925491333e-01 4.2546257376670837e-01</leafValues></_></weakClassifiers></_>
    <!-- stage 8 -->
    <_>
      <maxWeakCount>6</maxWeakCount>
      <stageThreshold>-1.5236393213272095e+00</stageThreshold>
      <weakClassifiers>
        <_>
          <internalNodes>
            0 -1 36 -69075974 -1215708897 -1232845989 -640569295
            -264175718 -1417345407 -460466502 -67109926</internalNodes>
          <leafValues>
            -6.6705471277236938e-01 5.0219106674194336e-01</leafValues></_>
        <_>
          <internalNodes>
            0 -1 98 -205529793 -752328680 -2117840316 -713479880
            -637494354 -6765950 575255107 -1050897</internalNodes>
          <leafValues>
            -5.5978822708129883e-01 5.6134688854217529e-01</leafValues></_>
        <_>
          <internalNodes>
            0 -1 32 821293306 1939521947 -804396453 1372971423 293206674
            -1756888293 -385754625 1406139019</internalNodes>
          <leafValues>
            -6.9944959878921509e-01 4.6887031197547913e-01</leafValues></_>
        <_>
          <internalNodes>
            0 -1 92 -213133505 554508547 84934680 2019532801 -1055082102
            -114785100 977578923 -1144028629</internalNodes>
          <leafValues>
            -4.7013202309608459e-01 6.5588229894638062e-01</leafValues></_>
        <_>
          <internalNodes>
            0 -1 71 -796667450 -681841399 2064818433 -250765181
            1372094423 -41352448 -1045785853 1342957655</internalNodes>
          <leafValues>
            -7.1529245376586914e-01 4.5785909891128540e-01</leafValues></_>
        <_>
          <internalNodes>
            0 -1 62 -243010814 1425503243 -664030289 2109427719
            1368250559 -976650181 -22959330 873074107</internalNodes>
          <leafValues>
            -7.3974204063415527e-01 4.1975778341293335e-01</leafValues></_></weakClassifiers></_>
    <!-- stage 9 -->
    <_>
      <maxWeakCount>4</maxWeakCount>
      <stageThreshold>-6.6714084148406982e-01</stageThreshold>
      <weakClassifiers>
        <_>
          <internalNodes>
            0 -1 6 2000723423 -12581202 679092823 -537063335 -1604263237
            -82761070 -1057744385 -102258017</internalNodes>
          <leafValues>
            -7.1712160110473633e-01 4.8408710956573486e-01</leafValues></_>
        <_>
          <internalNodes>
            0 -1 15 257251263 -107142570 1346946015 1472154559 404780543
            -102817542 2052014319 1464816207</internalNodes>
          <leafValues>
            -6.4061039686203003e-01 4.5872011780738831e-01</leafValues></_>
        <_>
          <internalNodes>
            0 -1 28 286382300 521470618 -1325095462 1060598721
            -649035562 1728089258 -79640305 1903295407</internalNodes>
          <leafValues>
            -7.9525071382522583e-01 3.6159130930900574e-01</leafValues></_>
        <_>
          <internalNodes>
            0 -1 108 1954542640 6484096 270659784 1167319081 -1372874501
            -1907464040 -783616883 1151328473</internalNodes>
          <leafValues>
            -7.6748722791671753e-01 3.8651132583618164e-01</leafValues></_></weakClassifiers></_>
    <!-- stage 10 -->
    <_>
      <maxWeakCount>6</maxWeakCount>
      <stageThreshold>-6.8027663230895996e-01</stageThreshold>
      <weakClassifiers>
        <_>
          <internalNodes>
            0 -1 98 -1 -196900 -3348456 -164360 1618804735 -2298752
            -539164673 -2098177</internalNodes>
          <leafValues>
            -5.3949904441833496e-01 5.8212059736251831e-01</leafValues></_>
        <_>
          <internalNodes>
            0 -1 54 810550356 2130204479 -1113204453 -41855652
            -1078229341 -1079497811 -2002219595 -1141163813</internalNodes>
          <leafValues>
            -7.3264509439468384e-01 4.1582018136978149e-01</leafValues></_>
        <_>
          <internalNodes>
            0 -1 61 -238157846 1431034830 672750784 -262858371 -14953906
            -1064631871 -234188073 -143920405</internalNodes>
          <leafValues>
            -6.4533329010009766e-01 4.7216230630874634e-01</leafValues></_>
        <_>
          <internalNodes>
            0 -1 75 -1039941437 1557811225 13943959 1478496367
            -774095366 -1792949721 -1944723797 500108015</internalNodes>
          <leafValues>
            -6.4792525768280029e-01 5.0373947620391846e-01</leafValues></_>
        <_>
          <internalNodes>
            0 -1 106 1610602986 -54396985 1661554688 1912951383
            -481836062 54907778 -2056735749 1902639823</internalNodes>
          <leafValues>
            -7.9778897762298584e-01 3.6190649867057800e-01</leafValues></_>
        <_>
          <internalNodes>
            0 -1 94 386492761 117672067 1468208023 1429410227 -147015160
            1714573802 1254875370 135261835</internalNodes>
          <leafValues>
            -6.7286282777786255e-01 4.1695415973663330e-01</leafValues></_></weakClassifiers></_>
    <!-- stage 11 -->
    <_>
      <maxWeakCount>8</maxWeakCount>
      <stageThreshold>-1.5942485332489014e+00</stageThreshold>
      <weakClassifiers>
        <_>
          <internalNodes>
            0 -1 30 -911494945 758122640 -1827507746 -11531561 256591915
            -500416374 -1460106577 -120537285</internalNodes>
          <leafValues>
            -6.6666668653488159e-01 4.2622950673103333e-01</leafValues></_>
        <_>
          <internalNodes>
            0 -1 92 -577 -173008 -268500995 -8388867 -1261846 -515460
            -1099108353 -1074808837</internalNodes>
          <leafValues>
            -4.8610219359397888e-01 6.0455363988876343e-01</leafValues></_>
        <_>
          <internalNodes>
            0 -1 97 -257828664 -548145145 -1928783557 -648360033
            -1096570189 -31363070 -1740051906 -1184460066</internalNodes>
          <leafValues>
            -6.2604820728302002e-01 4.3620851635932922e-01</leafValues></_>
        <_>
          <internalNodes>
            0 -1 113 -663487079 -921993187 119902533 -1870148335
            -2004182872 -1996283904 276936864 8603103</internalNodes>
          <leafValues>
            -6.0501849651336670e-01 4.8876753449440002e-01</leafValues></_>
        <_>
          <internalNodes>
            0 -1 57 -581696807 -68075120 -818786277 -1185611519 11142347
            -285015928 -893417181 -14003652</internalNodes>
          <leafValues>
            -5.8423548936843872e-01 4.8736807703971863e-01</leafValues></_>
        <_>
          <internalNodes>
            0 -1 42 -446752246 -749136726 -1841540654 1572495356
            -1878123780 -821751800 1129388539 -254611713</internalNodes>
          <leafValues>
            -6.5980458259582520e-01 4.2107754945755005e-01</leafValues></_>
        <_>
          <internalNodes>
            0 -1 72 -792200050 -94322162 -1593730546 1928479499
            1351219338 570655232 1171236159 1078651321</internalNodes>
          <leafValues>
            -7.8538411855697632e-01 3.5957449674606323e-01</leafValues></_>
        <_>
          <internalNodes>
            0 -1 12 -614596609 -268473345 2062503567 -16833538 306191342
            -163841 1261653319 -16973612</internalNodes>
          <leafValues>
            -4.9748542904853821e-01 5.9700530767440796e-01</leafValues></_></weakClassifiers></_>
    <!-- stage 12 -->
    <_>
      <maxWeakCount>7</maxWeakCount>
      <stageThreshold>-7.7493190765380859e-01</stageThreshold>
      <weakClassifiers>
        <_>
          <internalNodes>
            0 -1 34 21940063 -183275421 -1879031339 1833959765
            1479935695 -1952831349 -335509287 -69201515</internalNodes>
          <leafValues>
            -6.0085380077362061e-01 5.2963310480117798e-01</leafValues></_>
        <_>
          <internalNodes>
            0 -1 86 -250363757 -12322061 792788141 -847214451 -850474289
            -884440958 -1954428786 -389535729</internalNodes>
          <leafValues>
            -5.2804893255233765e-01 5.7164615392684937e-01</leafValues></_>
        <_>
          <internalNodes>
            0 -1 102 1856958035 -89478534 -1372967375 992623137
            -290788625 -4276361 -190322949 -301991937</internalNodes>
          <leafValues>
            -4.9272254109382629e-01 6.0934060811996460e-01</leafValues></_>
        <_>
          <internalNodes>
            0 -1 4 -141702314 -249829996 -1037302373 -729202657
            807409290 1910771728 -1057963601 1888031515</internalNodes>
          <leafValues>
            -6.7611211538314819e-01 4.5824497938156128e-01</leafValues></_>
        <_>
          <internalNodes>
            0 -1 20 -613531514 -784121776 -1064828088 -1266039413
            1134133658 -562454528 -1499702961 -15754773</internalNodes>
          <leafValues>
            -5.6265234947204590e-01 5.4885232448577881e-01</leafValues></_>
        <_>
          <internalNodes>
            0 -1 14 470157275 -467969736 1380506761 -1929322216
            -2012243313 -2020179702 -2002740581 -32924336</internalNodes>
          <leafValues>
            -5.8074003458023071e-01 5.4082059860229492e-01</leafValues></_>
        <_>
          <internalNodes>
            0 -1 64 -816600762 1932256286 1224970753 -700077535
            -1602050033 205128267 257132550 21471555</internalNodes>
          <leafValues>
            -6.6604727506637573e-01 5.1471346616744995e-01</leafValues></_></weakClassifiers></_>
    <!-- stage 13 -->
    <_>
      <maxWeakCount>7</maxWeakCount>
      <stageThreshold>-1.0129814147949219e+00</stageThreshold>
      <weakClassifiers>
        <_>
          <internalNodes>
            0 -1 90 -1119360124 2048737409 84104763 1540837475
            2056015100 1268252684 166398207 1594556907</internalNodes>
          <leafValues>
            -7.8769230842590332e-01 3.7925925850868225e-01</leafValues></_>
        <_>
          <internalNodes>
            0 -1 24 -1543487300 -16576501 -182087421 -1257283517
            -1180120945 -40759121 -1073772390 -6216579</internalNodes>
          <leafValues>
            -7.6045536994934082e-01 3.7412524223327637e-01</leafValues></_>
        <_>
          <internalNodes>
            0 -1 16 -243532851 -432422885 66759 -145555053 -487868195
            8422419 2072175681 1347489958</internalNodes>
          <leafValues>
            -5.9918189048767090e-01 5.6572961807250977e-01</leafValues></_>
        <_>
          <internalNodes>
            0 -1 87 -248269589 -16778753 -1334345729 -536872041
            -338952453 -32769 -1206649857 -1015808001</internalNodes>
          <leafValues>
            -5.1473939418792725e-01 6.1672312021255493e-01</leafValues></_>
        <_>
          <internalNodes>
            0 -1 65 1937240386 -620554534 -499460774 -611540977
            -477506354 1728096386 822363459 1196925287</internalNodes>
          <leafValues>
            -7.2778397798538208e-01 4.2058026790618896e-01</leafValues></_>
        <_>
          <internalNodes>
            0 -1 41 2080370941 -1145209667 839972869 1431434305
            -68496502 -537985444 -1026806610 -87102338</internalNodes>
          <leafValues>
            -4.8089724779129028e-01 6.8809247016906738e-01</leafValues></_>
        <_>
          <internalNodes>
            0 -1 2 -784019123 1372260869 -653391101 -662601717
            -1539301120 -318562294 -445143935 2131174592</internalNodes>
          <leafValues>
            -5.7882279157638550e-01 5.5623662471771240e-01</leafValues></_></weakClassifiers></_>
    <!-- stage 14 -->
    <_>
      <maxWeakCount>8</maxWeakCount>
      <stageThreshold>-1.4076925516128540e+00</stageThreshold>
      <weakClassifiers>
        <_>
          <internalNodes>
            0 -1 103 1439683278 -552004154 1073963591 -652553773
            287822058 1380847809 -2111586085 -678958349</internalNodes>
          <leafValues>
            -6.3440859317779541e-01 4.5657780766487122e-01</leafValues></_>
        <_>
          <internalNodes>
            0 -1 26 465093117 -879411024 687867419 -2054206451
            -1665604705 -81048356 -1974822265 -1087675769</internalNodes>
          <leafValues>
            -5.6552863121032715e-01 5.4193234443664551e-01</leafValues></_>
        <_>
          <internalNodes>
            0 -1 51 -756032822 -653456865 -98053869 -602070321 -95923646
            -831979198 -134117154 -1069496256</internalNodes>
          <leafValues>
            -7.1951168775558472e-01 4.6158289909362793e-01</leafValues></_>
        <_>
          <internalNodes>
            0 -1 114 -421529635 -1936572299 21537035 443553 -2113523412
            948568089 1612898627 1087080714</internalNodes>
          <leafValues>
            -5.5902785062789917e-01 5.2923256158828735e-01</leafValues></_>
        <_>
          <internalNodes>
            0 -1 47 -800863011 -205316 -76021889 -806354945 -1041004573
            -5771009 -570440713 -1895880865</internalNodes>
          <leafValues>
            -4.9595934152603149e-01 5.9509575366973877e-01</leafValues></_>
        <_>
          <internalNodes>
            0 -1 48 -1851801346 1436107921 1342218844 -569355852
            -1746165417 -326770160 -1507946709 1587825497</internalNodes>
          <leafValues>
            -6.2651675939559937e-01 4.5015296339988708e-01</leafValues></_>
        <_>
          <internalNodes>
            0 -1 31 -1835147653 -148887408 168612007 -662123111
            -670760310 -845668352 1250067855 -827527381</internalNodes>
          <leafValues>
            -5.8691024780273438e-01 5.3052139282226562e-01</leafValues></_>
        <_>
          <internalNodes>
            0 -1 74 -8573441 -279584819 68108199 2144272349 1844170367
            -1623212129 1094269950 -738001017</internalNodes>
          <leafValues>
            -4.7854068875312805e-01 6.6469496488571167e-01</leafValues></_></weakClassifiers></_>
    <!-- stage 15 -->
    <_>
      <maxWeakCount>7</maxWeakCount>
      <stageThreshold>-1.1458561420440674e+00</stageThreshold>
      <weakClassifiers>
        <_>
          <internalNodes>
            0 -1 58 -1152596818 -204617316 -367287855 -415022768
            -1070609693 -1449415795 -1459051925 -99374463</internalNodes>
          <leafValues>
            -6.9167804718017578e-01 4.0015783905982971e-01</leafValues></_>
        <_>
          <internalNodes>
            0 -1 88 -715951933 -573988221 218927005 -13712297 -880479605
            -661896919 321638555 1430733126</internalNodes>
          <leafValues>
            -6.3380116224288940e-01 4.2402052879333496e-01</leafValues></_>
        <_>
          <internalNodes>
            0 -1 1 -694685466 -784083755 -1826930237 1434964232
            637743156 -83831653 18735791 2131218631</internalNodes>
          <leafValues>
            -6.3952684402465820e-01 4.4741943478584290e-01</leafValues></_>
        <_>
          <internalNodes>
            0 -1 49 -1334307623 -13044399 562440798 890269989 241497342
            -269099041 1481287391 -607251499</internalNodes>
          <leafValues>
            -4.9933105707168579e-01 6.1095845699310303e-01</leafValues></_>
        <_>
          <internalNodes>
            0 -1 110 -691807070 -1828508445 655488 -217479670 1469538811
            1082262548 1367583385 2000787681</internalNodes>
          <leafValues>
            -7.0486342906951904e-01 4.1293027997016907e-01</leafValues></_>
        <_>
          <internalNodes>
            0 -1 63 -258740222 -789987133 -897005087 -1897413630
            -1280657221 -903249790 547401735 -958930784</internalNodes>
          <leafValues>
            -6.6322976350784302e-01 4.2997196316719055e-01</leafValues></_>
        <_>
          <internalNodes>
            0 -1 8 -85796405 -489615275 285406229 -766815989 -98518040
            579895348 -1479898525 -250489416</internalNodes>
          <leafValues>
            -5.8087718486785889e-01 5.3611594438552856e-01</leafValues></_></weakClassifiers></_>
    <!-- stage 16 -->
    <_>
      <maxWeakCount>7</maxWeakCount>
      <stageThreshold>-8.8285160064697266e-01</stageThreshold>
      <weakClassifiers>
        <_>
          <internalNodes>
            0 -1 84 -83405905 132974639 1772799835 -203979565 -871276221
            1196363151 1890881759 1197145135</internalNodes>
          <leafValues>
            -6.9270831346511841e-01 4.3181818723678589e-01</leafValues></_>
        <_>
          <internalNodes>
            0 -1 18 -1371155465 -477822969 1212252231 -993523049
            -2026828381 -364838510 1715534571 -364417889</internalNodes>
          <leafValues>
            -4.5716699957847595e-01 6.1397415399551392e-01</leafValues></_>
        <_>
          <internalNodes>
            0 -1 96 -784265206 -550411059 -132500211 487295666
            -560995105 -1184296665 -636837254 1042950226</internalNodes>
          <leafValues>
            -6.7492848634719849e-01 4.1759145259857178e-01</leafValues></_>
        <_>
          <internalNodes>
            0 -1 93 1913780182 -1053605881 -1592455156 -2130640117
            -1575754525 -1465744766 1293540312 219670873</internalNodes>
          <leafValues>
            -6.4485728740692139e-01 4.7516629099845886e-01</leafValues></_>
        <_>
          <internalNodes>
            0 -1 44 -642071299 -1716496273 152050197 -1317437049
            -1269681445 -100367359 1974067967 -1930772257</internalNodes>
          <leafValues>
            -5.4887914657592773e-01 5.4237568378448486e-01</leafValues></_>
        <_>
          <internalNodes>
            0 -1 39 -1650533897 -1153565727 -1097557937 -2064234864
            -34668946 -553654323 1782887117 -930289080</internalNodes>
          <leafValues>
            -4.7559013962745667e-01 6.4774829149246216e-01</leafValues></_>
        <_>
          <internalNodes>
            0 -1 56 -1601181182 2057547858 -147574405 -450256815
            -245954691 -1990160367 -795830109 -982544365</internalNodes>
          <leafValues>
            -6.4363718032836914e-01 5.1132851839065552e-01</leafValues></_></weakClassifiers></_>
    <!-- stage 17 -->
    <_>
      <maxWeakCount>7</maxWeakCount>
      <stageThreshold>-1.9175590276718140e+00</stageThreshold>
      <weakClassifiers>
        <_>
          <internalNodes>
            0 -1 52 414716152 -1913179429 -249998959 -1139074590
            -1404757082 -1702594152 -460480579 1073364847</internalNodes>
          <leafValues>
            -7.8412699699401855e-01 3.6058393120765686e-01</leafValues></_>
        <_>
          <internalNodes>
            0 -1 46 -1072966562 -316438373 837094088 -352167932
            1111922070 1502118243 -2050277373 -1060650345</internalNodes>
          <leafValues>
            -6.1090433597564697e-01 4.3197888135910034e-01</leafValues></_>
        <_>
          <internalNodes>
            0 -1 99 -66829611 -932795866 1627474457 -335437430
            -1596988758 -1365073820 -1357739935 -581835270</internalNodes>
          <leafValues>
            -5.0506311655044556e-01 5.6531465053558350e-01</leafValues></_>
        <_>
          <internalNodes>
            0 -1 107 -807800045 -1609363072 -1073198827 313573400
            -979631093 -1996447406 1355125900 579507887</internalNodes>
          <leafValues>
            -5.9463661909103394e-01 5.2474743127822876e-01</leafValues></_>
        <_>
          <internalNodes>
            0 -1 35 85658577 -1682762896 1963022129 -602314735 761992
            -1445287279 1134593059 -29314160</internalNodes>
          <leafValues>
            -5.1716369390487671e-01 5.4068100452423096e-01</leafValues></_>
        <_>
          <internalNodes>
            0 -1 19 -135081737 -805327110 -6081809 268320255 334958815
            -127033 1449614293 -1073787403</internalNodes>
          <leafValues>
            -5.2152985334396362e-01 5.4395025968551636e-01</leafValues></_>
        <_>
          <internalNodes>
            0 -1 7 -1823360194 1493795027 1098907664 1065981702
            657079018 484492321 1489174554 1326096579</internalNodes>
          <leafValues>
            -6.3637131452560425e-01 4.7115463018417358e-01</leafValues></_></weakClassifiers></_>
    <!-- stage 18 -->
    <_>
      <maxWeakCount>7</maxWeakCount>
      <stageThreshold>-8.9991128444671631e-01</stageThreshold>
      <weakClassifiers>
        <_>
          <internalNodes>
            0 -1 101 -1025 -537002532 -573515972 -42084491 -805502977
            -1786648 1857880063 -1073801521</internalNodes>
          <leafValues>
            -4.7454544901847839e-01 5.7999998331069946e-01</leafValues></_>
        <_>
          <internalNodes>
            0 -1 43 -86789441 -16975361 1245118463 -826573317
            -1496581005 -665060165 -1677332403 -805125914</internalNodes>
          <leafValues>
            -4.8734837770462036e-01 5.6095898151397705e-01</leafValues></_>
        <_>
          <internalNodes>
            0 -1 112 -343941419 168821201 1095815573 1452919233
            -494021692 -364902013 1477633449 1213088143</internalNodes>
          <leafValues>
            -5.6800037622451782e-01 4.6633666753768921e-01</leafValues></_>
        <_>
          <internalNodes>
            0 -1 77 1906024316 -216567219 -2086663168 -400449469
            -1761574884 -2103409132 -1712198777 1527322897</internalNodes>
          <leafValues>
            -8.5314363241195679e-01 3.1439474225044250e-01</leafValues></_>
        <_>
          <internalNodes>
            0 -1 68 -1409293153 -134219012 -673126681 1475346431
            -17927986 -30974339 -673103633 -696912395</internalNodes>
          <leafValues>
            -4.8201942443847656e-01 5.8991777896881104e-01</leafValues></_>
        <_>
          <internalNodes>
            0 -1 5 -25104434 -787902460 -1475698306 -1945034746
            842052036 -163047031 911238865 1787982909</internalNodes>
          <leafValues>
            -6.8329882621765137e-01 4.1061666607856750e-01</leafValues></_>
        <_>
          <internalNodes>
            0 -1 40 -1690116257 1125287990 939871867 -1844950012
            570425531 -1719654238 671228473 -1198284626</internalNodes>
          <leafValues>
            -5.5174487829208374e-01 5.7589328289031982e-01</leafValues></_></weakClassifiers></_>
    <!-- stage 19 -->
    <_>
      <maxWeakCount>8</maxWeakCount>
      <stageThreshold>-1.4497425556182861e+00</stageThreshold>
      <weakClassifiers>
        <_>
          <internalNodes>
            0 -1 100 -711331202 1394143256 1509970068 -1621257847
            1127256474 -1693867216 -1406463541 -1348492405</internalNodes>
          <leafValues>
            -6.5517240762710571e-01 4.4781145453453064e-01</leafValues></_>
        <_>
          <internalNodes>
            0 -1 85 1465873219 -1378149671 1476889125 -1819170173
            -659568401 -1464565632 -601259383 -91244885</internalNodes>
          <leafValues>
            -4.8071426153182983e-01 5.2964144945144653e-01</leafValues></_>
        <_>
          <internalNodes>
            0 -1 17 -652741579 -745555616 425525277 59081121 738898176
            -1912437501 -1541520493 1998809425</internalNodes>
          <leafValues>
            -5.4340505599975586e-01 4.7293695807456970e-01</leafValues></_>
        <_>
          <internalNodes>
            0 -1 23 274251508 -108244725 -2063563633 -1642592245
            -1073182611 -1752366969 327221479 1142218756</internalNodes>
          <leafValues>
            -6.4296269416809082e-01 4.1981792449951172e-01</leafValues></_>
        <_>
          <internalNodes>
            0 -1 109 1945104874 1360248845 -2094513582 1884344479
            315343494 1107427968 -1863334071 -177873275</internalNodes>
          <leafValues>
            -6.4204794168472290e-01 3.7883567810058594e-01</leafValues></_>
        <_>
          <internalNodes>
            0 -1 66 -16435617 -5243640 1061942751 -540156019 -10946646
            -416817400 1459614702 -704708806</internalNodes>
          <leafValues>
            -4.6839353442192078e-01 6.6936290264129639e-01</leafValues></_>
        <_>
          <internalNodes>
            0 -1 50 818229407 691830964 -1071634096 -1072551096 2097165
            -499941119 -2137953536 207047170</internalNodes>
          <leafValues>
            -6.3463240861892700e-01 5.0191158056259155e-01</leafValues></_>
        <_>
          <internalNodes>
            0 -1 21 -754626167 1461399896 956406673 412975552
            -1867497320 730372490 1074311307 -1944420097</internalNodes>
          <leafValues>
            -5.6033414602279663e-01 4.9371829628944397e-01</leafValues></_></weakClassifiers></_></stages>
  <features>
    <_>
      <rect>
        0 0 8 6</rect></_>
    <_>
      <rect>
        0 2 6 5</rect></_>
    <_>
      <rect>
        0 3 6 5</rect></_>
    <_>
      <rect>
        0 4 8 2</rect></_>
    <_>
      <rect>
        0 5 7 6</rect></_>
    <_>
      <rect>
        0 6 4 2</rect></_>
    <_>
      <rect>
        0 6 6 4</rect></_>
    <_>
      <rect>
        0 15 8 3</rect></_>
    <_>
      <rect>
        1 0 7 6</rect></_>
    <_>
      <rect>
        1 3 7 3</rect></_>
    <_>
      <rect>
        1 4 4 5</rect></_>
    <_>
      <rect>
        2 2 7 3</rect></_>
    <_>
      <rect>
        2 4 3 3</rect></_>
    <_>
      <rect>
        2 9 5 3</rect></_>
    <_>
      <rect>
        2 10 6 2</rect></_>
    <_>
      <rect>
        2 14 6 3</rect></_>
    <_>
      <rect>
        3 0 7 6</rect></_>
    <_>
      <rect>
        3 2 4 5</rect></_>
    <_>
      <rect>
        3 3 3 6</rect></_>
    <_>
      <rect>
        3 5 3 2</rect></_>
    <_>
      <rect>
        3 8 2 3</rect></_>
    <_>
      <rect>
        3 11 6 1</rect></_>
    <_>
      <rect>
        4 0 6 5</rect></_>
    <_>
      <rect>
        4 1 5 2</rect></_>
    <_>
      <rect>
        4 4 5 4</rect></_>
    <_>
      <rect>
        4 6 5 4</rect></_>
    <_>
      <rect>
        4 6 5 5</rect></_>
    <_>
      <rect>
        4 7 5 3</rect></_>
    <_>
      <rect>
        4 8 2 3</rect></_>
    <_>
      <rect>
        4 8 5 4</rect></_>
    <_>
      <rect>
        4 9 4 3</rect></_>
    <_>
      <rect>
        4 10 5 2</rect></_>
    <_>
      <rect>
        5 8 2 2</rect></_>
    <_>
      <rect>
        5 9 5 2</rect></_>
    <_>
      <rect>
        5 12 4 2</rect></_>
    <_>
      <rect>
        5 13 3 1</rect></_>
    <_>
      <rect>
        6 3 2 5</rect></_>
    <_>
      <rect>
        6 7 4 4</rect></_>
    <_>
      <rect>
        6 8 2 2</rect></_>
    <_>
      <rect>
        6 9 3 1</rect></_>
    <_>
      <rect>
        6 9 3 2</rect></_>
    <_>
      <rect>
        6 9 5 1</rect></_>
    <_>
      <rect>
        6 10 2 2</rect></_>
    <_>
      <rect>
        7 0 1 6</rect></_>
    <_>
      <rect>
        7 0 4 6</rect></_>
    <_>
      <rect>
        7 1 3 3</rect></_>
    <_>
      <rect>
        7 4 1 4</rect></_>
    <_>
      <rect>
        7 5 1 3</rect></_>
    <_>
      <rect>
        7 7 2 2</rect></_>
    <_>
      <rect>
        7 8 3 1</rect></_>
    <_>
      <rect>
        7 15 2 1</rect></_>
    <_>
      <rect>
        8 0 1 6</rect></_>
    <_>
      <rect>
        8 4 3 3</rect></_>
    <_>
      <rect>
        8 5 1 3</rect></_>
    <_>
      <rect>
        8 5 3 3</rect></_>
    <_>
      <rect>
        8 5 4 5</rect></_>
    <_>
      <rect>
        8 7 1 2</rect></_>
    <_>
      <rect>
        8 7 3 3</rect></_>
    <_>
      <rect>
        8 7 4 3</rect></_>
    <_>
      <rect>
        8 8 1 2</rect></_>
    <_>
      <rect>
        8 9 1 2</rect></_>
    <_>
      <rect>
        8 11 1 1</rect></_>
    <_>
      <rect>
        9 6 1 2</rect></_>
    <_>
      <rect>
        9 7 1 2</rect></_>
    <_>
      <rect>
        9 7 1 3</rect></_>
    <_>
      <rect>
        9 8 1 2</rect></_>
    <_>
      <rect>
        9 9 2 1</rect></_>
    <_>
      <rect>
        9 10 1 1</rect></_>
    <_>
      <rect>
        9 12 2 1</rect></_>
    <_>
      <rect>
        10 0 3 4</rect></_>
    <_>
      <rect>
        10 3 1 4</rect></_>
    <_>
      <rect>
        10 4 1 4</rect></_>
    <_>
      <rect>
        10 8 1 2</rect></_>
    <_>
      <rect>
        10 9 1 2</rect></_>
    <_>
      <rect>
        10 9 3 2</rect></_>
    <_>
      <rect>
        11 4 1 3</rect></_>
    <_>
      <rect>
        11 5 1 6</rect></_>
    <_>
      <rect>
        11 7 1 4</rect></_>
    <_>
      <rect>
        11 8 1 2</rect></_>
    <_>
      <rect>
        11 9 1 2</rect></_>
    <_>
      <rect>
        11 9 1 3</rect></_>
    <_>
      <rect>
        11 9 2 2</rect></_>
    <_>
      <rect>
        11 10 1 1</rect></_>
    <_>
      <rect>
        11 11 1 1</rect></_>
    <_>
      <rect>
        11 11 2 1</rect></_>
    <_>
      <rect>
        12 4 1 4</rect></_>
    <_>
      <rect>
        12 5 1 3</rect></_>
    <_>
      <rect>
        12 7 1 2</rect></_>
    <_>
      <rect>
        12 8 1 2</rect></_>
    <_>
      <rect>
        12 9 1 2</rect></_>
    <_>
      <rect>
        12 10 1 2</rect></_>
    <_>
      <rect>
        12 10 1 3</rect></_>
    <_>
      <rect>
        12 11 1 3</rect></_>
    <_>
      <rect>
        12 11 4 3</rect></_>
    <_>
      <rect>
        12 14 4 2</rect></_>
    <_>
      <rect>
        13 5 1 3</rect></_>
    <_>
      <rect>
        13 6 1 2</rect></_>
    <_>
      <rect>
        13 7 1 2</rect></_>
    <_>
      <rect>
        13 10 1 3</rect></_>
    <_>
      <rect>
        13 10 2 1</rect></_>
    <_>
      <rect>
        13 11 1 2</rect></_>
    <_>
      <rect>
        13 11 1 3</rect></_>
    <_>
      <rect>
        13 11 2 1</rect></_>
    <_>
      <rect>
        14 8 1 2</rect></_>
    <_>
      <rect>
        14 9 1 2</rect></_>
    <_>
      <rect>
        14 10 1 2</rect></_>
    <_>
      <rect>
        14 11 1 1</rect></_>
    <_>
      <rect>
        15 1 3 4</rect></_>
    <_>
      <rect>
        15 8 3 3</rect></_>
    <_>
      <rect>
        15 9 1 2</rect></_>
    <_>
      <rect>
        15 10 1 2</rect></_>
    <_>
      <rect>
        15 11 1 1</rect></_>
    <_>
      <rect>
        17 5 2 5</rect></_>
    <_>
      <rect>
        17 9 2 3</rect></_>
    <_>
      <rect>
        18 5 2 4</rect></_></features></cascade>
</opencv_storage>
