<?xml version="1.0"?>
<opencv_storage>
<cascade>
  <stageType>BOOST</stageType>
  <featureType>LBP</featureType>
  <height>20</height>
  <width>50</width>
  <stageParams>
    <boostType>GAB</boostType>
    <minHitRate>9.9900001287460327e-01</minHitRate>
    <maxFalseAlarm>5.0000000000000000e-01</maxFalseAlarm>
    <weightTrimRate>9.4999999999999996e-01</weightTrimRate>
    <maxDepth>1</maxDepth>
    <maxWeakCount>100</maxWeakCount></stageParams>
  <featureParams>
    <maxCatCount>256</maxCatCount>
    <featSize>1</featSize></featureParams>
  <stageNum>22</stageNum>
  <stages>
    <!-- stage 0 -->
    <_>
      <maxWeakCount>3</maxWeakCount>
      <stageThreshold>-7.8945595026016235e-01</stageThreshold>
      <weakClassifiers>
        <_>
          <internalNodes>
            0 -1 29 -4194358 -5259601 -21299320 -10005 -5570646 -5259265
            -1377029 -71303441</internalNodes>
          <leafValues>
            -8.3832335472106934e-01 9.2092090845108032e-01</leafValues></_>
        <_>
          <internalNodes>
            0 -1 41 -137636160 -101605143 -1073659766 -119831853
            -561719093 -1199374205 -1165767781 -268440897</internalNodes>
          <leafValues>
            -8.1975364685058594e-01 8.2565248012542725e-01</leafValues></_>
        <_>
          <internalNodes>
            0 -1 48 -7736323 -578759663 -1878933099 -720289775
            -2138516229 -121077695 1208332799 -662310525</internalNodes>
          <leafValues>
            -7.5920426845550537e-01 8.6862105131149292e-01</leafValues></_></weakClassifiers></_>
    <!-- stage 1 -->
    <_>
      <maxWeakCount>4</maxWeakCount>
      <stageThreshold>-4.0005591511726379e-01</stageThreshold>
      <weakClassifiers>
        <_>
          <internalNodes>
            0 -1 73 -104080417 -73838505 -111136257 1964474825
            1376932296 318898177 1536858879 1464826843</internalNodes>
          <leafValues>
            -8.8413095474243164e-01 7.7153217792510986e-01</leafValues></_>
        <_>
          <internalNodes>
            0 -1 60 1440077311 1431322864 1632192603 -574287407
            -644905557 -1911879510 -569381953 -3151873</internalNodes>
          <leafValues>
            -7.5416374206542969e-01 7.7959012985229492e-01</leafValues></_>
        <_>
          <internalNodes>
            0 -1 25 -13641778 -979532855 286376394 -753321197
            -1882282754 -1911846509 -670582645 -618661169</internalNodes>
          <leafValues>
            -8.3473604917526245e-01 5.9325110912322998e-01</leafValues></_>
        <_>
          <internalNodes>
            0 -1 47 -708840209 -1019114621 562402707 956497922
            -803339521 -1734113086 142936555 1534309003</internalNodes>
          <leafValues>
            -7.7687168121337891e-01 6.4498770236968994e-01</leafValues></_></weakClassifiers></_>
    <!-- stage 2 -->
    <_>
      <maxWeakCount>5</maxWeakCount>
      <stageThreshold>-1.8978397846221924e+00</stageThreshold>
      <weakClassifiers>
        <_>
          <internalNodes>
            0 -1 16 -654509825 -123669782 -1 -117575169 -50398465
            -1162321766 -553713665 -67176965</internalNodes>
          <leafValues>
            -6.1575406789779663e-01 8.3767229318618774e-01</leafValues></_>
        <_>
          <internalNodes>
            0 -1 80 -793587245 -795671209 -1736112385 -690007810
            -1869429513 -641433386 -1866011761 -1169735761</internalNodes>
          <leafValues>
            -5.8406633138656616e-01 7.0758438110351562e-01</leafValues></_>
        <_>
          <internalNodes>
            0 -1 51 1440602591 294682835 -582888095 1460916363
            -642066209 -891614277 -606298113 -571749397</internalNodes>
          <leafValues>
            -6.6751474142074585e-01 6.4163738489151001e-01</leafValues></_>
        <_>
          <internalNodes>
            0 -1 57 -2049 -573177867 -101189641 2013263871 -923731721
            -1980722988 1090447103 -544482051</internalNodes>
          <leafValues>
            -5.8287817239761353e-01 7.0199066400527954e-01</leafValues></_>
        <_>
          <internalNodes>
            0 -1 35 -1214974232 -1122643671 1569800446 1376999598
            -1286673670 -1196445525 2113321983 -1700091142</internalNodes>
          <leafValues>
            -7.5677865743637085e-01 5.1635974645614624e-01</leafValues></_></weakClassifiers></_>
    <!-- stage 3 -->
    <_>
      <maxWeakCount>5</maxWeakCount>
      <stageThreshold>-8.4292155504226685e-01</stageThreshold>
      <weakClassifiers>
        <_>
          <internalNodes>
            0 -1 63 -2089 -134219947 2147483647 -10487947 -196035344
            1347440740 -1078919169 -13574663</internalNodes>
          <leafValues>
            -6.9124424457550049e-01 7.5046902894973755e-01</leafValues></_>
        <_>
          <internalNodes>
            0 -1 32 1442709471 1362221435 -1846411777 890492699
            1097784511 -907540325 419077002 -12846445</internalNodes>
          <leafValues>
            -6.4585191011428833e-01 6.6437005996704102e-01</leafValues></_>
        <_>
          <internalNodes>
            0 -1 81 -1232994831 -1737371437 1099031807 -2132475689
            -1742605647 -1165967118 -716834125 -189593997</internalNodes>
          <leafValues>
            -6.5444540977478027e-01 6.1416578292846680e-01</leafValues></_>
        <_>
          <internalNodes>
            0 -1 131 -541084114 -23886302 -511487428 -142228725
            -352615515 -511507829 -1471756136 -217062654</internalNodes>
          <leafValues>
            -6.4865517616271973e-01 5.8331835269927979e-01</leafValues></_>
        <_>
          <internalNodes>
            0 -1 3 -618604545 -49737423 487474099 1494876447 -1599077925
            -1079500786 419450570 503865727</internalNodes>
          <leafValues>
            -7.0330953598022461e-01 5.7036906480789185e-01</leafValues></_></weakClassifiers></_>
    <!-- stage 4 -->
    <_>
      <maxWeakCount>5</maxWeakCount>
      <stageThreshold>-7.9452276229858398e-01</stageThreshold>
      <weakClassifiers>
        <_>
          <internalNodes>
            0 -1 18 -251856129 2051861242 2055207679 -1 -118033665
            -1444939010 -1161823233 -34565</internalNodes>
          <leafValues>
            -4.9223744869232178e-01 8.0787402391433716e-01</leafValues></_>
        <_>
          <internalNodes>
            0 -1 70 -535429121 1695802063 279175739 2116526299
            -1922392321 -1688149344 412072636 1322203387</internalNodes>
          <leafValues>
            -6.6931796073913574e-01 6.3581287860870361e-01</leafValues></_>
        <_>
          <internalNodes>
            0 -1 125 -1314898 -145390801 -1852702882 -207639806
            -71044669 -635453302 -1902016264 -3150870</internalNodes>
          <leafValues>
            -6.3688522577285767e-01 6.3271552324295044e-01</leafValues></_>
        <_>
          <internalNodes>
            0 -1 31 -707789394 -111288665 -1824211958 2041731807
            -778860117 -1870094173 -1621443954 -136667461</internalNodes>
          <leafValues>
            -8.0047714710235596e-01 4.5970121026039124e-01</leafValues></_>
        <_>
          <internalNodes>
            0 -1 5 -793258753 -1314176975 -775679917 -1713680365
            -1423197477 -1224572766 35183359 8993277</internalNodes>
          <leafValues>
            -6.5510737895965576e-01 5.4421663284301758e-01</leafValues></_></weakClassifiers></_>
    <!-- stage 5 -->
    <_>
      <maxWeakCount>6</maxWeakCount>
      <stageThreshold>-1.3105554580688477e+00</stageThreshold>
      <weakClassifiers>
        <_>
          <internalNodes>
            0 -1 49 288577015 858985881 -740336133 -541909505
            -1212459553 -72196622 -1281097729 -304641</internalNodes>
          <leafValues>
            -5.5721926689147949e-01 7.3656171560287476e-01</leafValues></_>
        <_>
          <internalNodes>
            0 -1 83 -673712131 -545488640 306532591 1427177867
            -394986020 -268640116 -619271425 1002052089</internalNodes>
          <leafValues>
            -6.5669214725494385e-01 5.8544081449508667e-01</leafValues></_>
        <_>
          <internalNodes>
            0 -1 107 -33554433 1427151572 489724154 -783953268
            -268566594 -604447236 486125311 -545792001</internalNodes>
          <leafValues>
            -4.9443957209587097e-01 7.4780780076980591e-01</leafValues></_>
        <_>
          <internalNodes>
            0 -1 87 286274547 419762192 429216383 356469161 -1086369541
            -75626429 385286131 -4240961</internalNodes>
          <leafValues>
            -5.3104090690612793e-01 6.6857248544692993e-01</leafValues></_>
        <_>
          <internalNodes>
            0 -1 28 -1456081426 -235806336 1091828562 2111673797
            -1846152257 -1914330116 42574763 -538341477</internalNodes>
          <leafValues>
            -7.6064753532409668e-01 4.7316282987594604e-01</leafValues></_>
        <_>
          <internalNodes>
            0 -1 58 -8398116 -674297836 553713876 1498353792 -1165458790
            -1213873518 -2103727970 -1893070324</internalNodes>
          <leafValues>
            -7.7968299388885498e-01 4.5567363500595093e-01</leafValues></_></weakClassifiers></_>
    <!-- stage 6 -->
    <_>
      <maxWeakCount>6</maxWeakCount>
      <stageThreshold>-1.2272975444793701e+00</stageThreshold>
      <weakClassifiers>
        <_>
          <internalNodes>
            0 -1 54 -16781810 -117440641 -200753478 -168886274 -289
            -201340865 -458760 -5570561</internalNodes>
          <leafValues>
            -6.5217393636703491e-01 6.8079352378845215e-01</leafValues></_>
        <_>
          <internalNodes>
            0 -1 52 -256771073 -640313099 -1879638021 -928043 -998252801
            -117579521 -553717761 -2337</internalNodes>
          <leafValues>
            -5.1979029178619385e-01 7.1389555931091309e-01</leafValues></_>
        <_>
          <internalNodes>
            0 -1 97 -175940404 -8716056 -2113103852 -539606706
            -200484146 -108916675 -1068842354 -858875254</internalNodes>
          <leafValues>
            -6.2578958272933960e-01 5.9384059906005859e-01</leafValues></_>
        <_>
          <internalNodes>
            0 -1 93 1932106737 288953360 808454609 488320499 -257
            -110119745 -1610612745 -8709</internalNodes>
          <leafValues>
            -5.2021241188049316e-01 7.0036381483078003e-01</leafValues></_>
        <_>
          <internalNodes>
            0 -1 112 -135659796 -5273714 -1056923520 1536098449 8683726
            37827010 1682473674 1603780619</internalNodes>
          <leafValues>
            -6.5028989315032959e-01 5.2915579080581665e-01</leafValues></_>
        <_>
          <internalNodes>
            0 -1 82 -658311 -590571341 180757 285345993 -734742279
            -1740373900 -1954348097 -1640281687</internalNodes>
          <leafValues>
            -6.5906333923339844e-01 5.1293450593948364e-01</leafValues></_></weakClassifiers></_>
    <!-- stage 7 -->
    <_>
      <maxWeakCount>7</maxWeakCount>
      <stageThreshold>-9.4368934631347656e-01</stageThreshold>
      <weakClassifiers>
        <_>
          <internalNodes>
            0 -1 40 -1077936146 -374341649 503283470 -563085329
            -1364197377 -822083585 -536870917 -537919489</internalNodes>
          <leafValues>
            -6.3802081346511841e-01 6.6756272315979004e-01</leafValues></_>
        <_>
          <internalNodes>
            0 -1 33 -12601345 -709500427 -1820163694 1435304081
            1620366991 941103539 715622539 -1730284119</internalNodes>
          <leafValues>
            -6.6221314668655396e-01 5.5805522203445435e-01</leafValues></_>
        <_>
          <internalNodes>
            0 -1 87 285216955 -1693241327 143985655 456870201 1060917487
            -78167969 1465810943 -13377</internalNodes>
          <leafValues>
            -5.3259837627410889e-01 6.3716560602188110e-01</leafValues></_>
        <_>
          <internalNodes>
            0 -1 68 -504270607 -252484999 -268501249 -62949649
            -1543704330 -524815 -1275068417 -1107592193</internalNodes>
          <leafValues>
            -5.6311881542205811e-01 6.1100298166275024e-01</leafValues></_>
        <_>
          <internalNodes>
            0 -1 132 -178263538 -581705441 16999068 328983335 1015126719
            -1325891442 2852872 -425055444</internalNodes>
          <leafValues>
            -7.1009761095046997e-01 4.6146222949028015e-01</leafValues></_>
        <_>
          <internalNodes>
            0 -1 98 -637814342 419529224 557440 826376520 -150232121
            2043248785 -1681665877 -7373113</internalNodes>
          <leafValues>
            -5.8518677949905396e-01 5.5481189489364624e-01</leafValues></_>
        <_>
          <internalNodes>
            0 -1 94 -1485791112 -921792400 -2129624299 1574790541
            -1123356177 -1279096780 -339033377 799674619</internalNodes>
          <leafValues>
            -7.6593303680419922e-01 4.3342566490173340e-01</leafValues></_></weakClassifiers></_>
    <!-- stage 8 -->
    <_>
      <maxWeakCount>8</maxWeakCount>
      <stageThreshold>-9.9920439720153809e-01</stageThreshold>
      <weakClassifiers>
        <_>
          <internalNodes>
            0 -1 80 -252645133 -50891401 -147467 -16812033 -1330528265
            -67731457 871890943 -1077985281</internalNodes>
          <leafValues>
            -4.1120606660842896e-01 7.3600411415100098e-01</leafValues></_>
        <_>
          <internalNodes>
            0 -1 42 -486804681 -2754571 1660417139 2147481075
            -1996816641 -655296524 -218171913 -1073822211</internalNodes>
          <leafValues>
            -5.2432870864868164e-01 6.3304013013839722e-01</leafValues></_>
        <_>
          <internalNodes>
            0 -1 37 1370476383 1904298371 -1975630279 2109978007
            -578283093 -338952031 -21370200 -3973074</internalNodes>
          <leafValues>
            -5.7039451599121094e-01 5.5998647212982178e-01</leafValues></_>
        <_>
          <internalNodes>
            0 -1 113 -2100298 -1681448806 1360265228 1100808280
            -247459828 977911816 1241566086 -571538993</internalNodes>
          <leafValues>
            -5.7949626445770264e-01 5.7750576734542847e-01</leafValues></_>
        <_>
          <internalNodes>
            0 -1 106 -289 -36885336 1059885816 2078665416 -1444217094
            797568168 309436058 1536289791</internalNodes>
          <leafValues>
            -5.2627420425415039e-01 5.9905123710632324e-01</leafValues></_>
        <_>
          <internalNodes>
            0 -1 120 -201611602 -682917337 289652958 1570290205
            -505638225 -233631534 -624784713 -114644825</internalNodes>
          <leafValues>
            -6.1927348375320435e-01 5.0388133525848389e-01</leafValues></_>
        <_>
          <internalNodes>
            0 -1 34 -289 -548554765 -210021561 -772328015 -922793249
            -378059011 -1929916438 -1879062529</internalNodes>
          <leafValues>
            -5.0759142637252808e-01 6.3735848665237427e-01</leafValues></_>
        <_>
          <internalNodes>
            0 -1 59 -718537219 -8220285 1691944159 1360241945
            -2146977648 -1941026807 545336777 489190540</internalNodes>
          <leafValues>
            -6.3950091600418091e-01 4.8740297555923462e-01</leafValues></_></weakClassifiers></_>
    <!-- stage 9 -->
    <_>
      <maxWeakCount>7</maxWeakCount>
      <stageThreshold>-9.2678856849670410e-01</stageThreshold>
      <weakClassifiers>
        <_>
          <internalNodes>
            0 -1 96 -391319842 -537330434 788066238 -50610433 -302121218
            -65537 -1098907649 -16842754</internalNodes>
          <leafValues>
            -4.4210526347160339e-01 6.9268292188644409e-01</leafValues></_>
        <_>
          <internalNodes>
            0 -1 45 -1647093776 -985645024 1828773704 -720285440
            -2118915333 -813135621 319873505 -681402206</internalNodes>
          <leafValues>
            -6.2278246879577637e-01 5.0667142868041992e-01</leafValues></_>
        <_>
          <internalNodes>
            0 -1 134 -1174423762 -1626877521 280287742 1401936942
            -2003126469 -2071277565 -1979678580 -571740482</internalNodes>
          <leafValues>
            -6.5523529052734375e-01 4.6600857377052307e-01</leafValues></_>
        <_>
          <internalNodes>
            0 -1 64 -144869810 -1073741823 -939518804 1632649307
            -892202932 -1030684670 -1679287041 -541434229</internalNodes>
          <leafValues>
            -6.7342990636825562e-01 4.5429509878158569e-01</leafValues></_>
        <_>
          <internalNodes>
            0 -1 20 -581608977 1025573346 599857629 -4595082 -643071089
            -1163918613 -1777821566 -11693142</internalNodes>
          <leafValues>
            -5.2804094552993774e-01 5.6616771221160889e-01</leafValues></_>
        <_>
          <internalNodes>
            0 -1 103 -791719794 -775480757 -763260856 1361781775
            -670308344 -666169335 -130947413 1081037418</internalNodes>
          <leafValues>
            -7.0608675479888916e-01 4.2806297540664673e-01</leafValues></_>
        <_>
          <internalNodes>
            0 -1 99 -215801620 936706066 1430267088 1371374617 -83311973
            1109508266 629393599 -8668529</internalNodes>
          <leafValues>
            -5.9858936071395874e-01 4.7722956538200378e-01</leafValues></_></weakClassifiers></_>
    <!-- stage 10 -->
    <_>
      <maxWeakCount>8</maxWeakCount>
      <stageThreshold>-8.8937342166900635e-01</stageThreshold>
      <weakClassifiers>
        <_>
          <internalNodes>
            0 -1 9 -123012865 -106235666 -1107296769 -100699905
            -88539393 -360033396 -705101825 -1717896201</internalNodes>
          <leafValues>
            -4.1796875000000000e-01 7.2267204523086548e-01</leafValues></_>
        <_>
          <internalNodes>
            0 -1 86 340193271 1026920927 -2783681 843385806 413722859
            -1893725951 228231371 782195194</internalNodes>
          <leafValues>
            -7.2756636142730713e-01 4.7093448042869568e-01</leafValues></_>
        <_>
          <internalNodes>
            0 -1 38 935262126 -1810566428 -1825504272 1584533555
            -1448967749 -1447514046 320111335 190967875</internalNodes>
          <leafValues>
            -8.4162926673889160e-01 3.4654673933982849e-01</leafValues></_>
        <_>
          <internalNodes>
            0 -1 72 -1614938217 -818707837 -1996274286 -844513131
            -596798212 996398485 80322763 1331996819</internalNodes>
          <leafValues>
            -6.5094876289367676e-01 4.3635293841362000e-01</leafValues></_>
        <_>
          <internalNodes>
            0 -1 24 -256594451 -235601275 -1156996618 -1289502399
            430735499 134384710 -1845456197 -1279589982</internalNodes>
          <leafValues>
            -6.1011105775833130e-01 4.8308709263801575e-01</leafValues></_>
        <_>
          <internalNodes>
            0 -1 55 -1038749942 -804232515 1293280840 -1058245113
            -1054739672 -1323161342 -1557414997 -607392789</internalNodes>
          <leafValues>
            -7.7008962631225586e-01 3.8455313444137573e-01</leafValues></_>
        <_>
          <internalNodes>
            0 -1 119 -1971322929 9458036 -1761088190 -111647723
            691055237 772440200 1006716973 1005223865</internalNodes>
          <leafValues>
            -6.5247172117233276e-01 4.4574522972106934e-01</leafValues></_>
        <_>
          <internalNodes>
            0 -1 110 -37234102 -643169587 -788416366 -641395438
            -1941458749 100663619 1136906451 1796166455</internalNodes>
          <leafValues>
            -7.3292332887649536e-01 4.2782410979270935e-01</leafValues></_></weakClassifiers></_>
    <!-- stage 11 -->
    <_>
      <maxWeakCount>8</maxWeakCount>
      <stageThreshold>-1.3024588823318481e+00</stageThreshold>
      <weakClassifiers>
        <_>
          <internalNodes>
            0 -1 1 1510539007 970501370 821821183 1946091263 -2098011649
            -822229784 -1168117249 -570696450</internalNodes>
          <leafValues>
            -3.7592592835426331e-01 7.3229163885116577e-01</leafValues></_>
        <_>
          <internalNodes>
            0 -1 75 -1006636081 -268337021 -984555510 1074069632
            1495273472 -1953365862 197666991 990528395</internalNodes>
          <leafValues>
            -6.6532444953918457e-01 5.0611084699630737e-01</leafValues></_>
        <_>
          <internalNodes>
            0 -1 108 -157289526 319398024 19398792 286210495 16826511
            69539856 16777866 1500440812</internalNodes>
          <leafValues>
            -7.2895228862762451e-01 4.2712622880935669e-01</leafValues></_>
        <_>
          <internalNodes>
            0 -1 90 -1848618792 -81981359 16817273 -640061280
            -1031648886 -662036424 -1610469686 -938573686</internalNodes>
          <leafValues>
            -5.7917708158493042e-01 5.2993136644363403e-01</leafValues></_>
        <_>
          <internalNodes>
            0 -1 2 1343697407 1547833472 84935755 491718673 -2004872653
            -1660321536 -922050051 -1143248708</internalNodes>
          <leafValues>
            -5.4821777343750000e-01 5.8518332242965698e-01</leafValues></_>
        <_>
          <internalNodes>
            0 -1 112 -604241937 -542261586 824373426 -249351691
            1705299406 1749515719 869381315 -70265169</internalNodes>
          <leafValues>
            -4.5424845814704895e-01 7.2518920898437500e-01</leafValues></_>
        <_>
          <internalNodes>
            0 -1 13 269029627 -83601205 1384698651 1505842451
            -2147304773 -58662514 5100001 495522177</internalNodes>
          <leafValues>
            -6.9226711988449097e-01 4.7843369841575623e-01</leafValues></_>
        <_>
          <internalNodes>
            0 -1 115 -711466578 1362338695 -1051228522 831111203
            -503197166 -1702297213 -2046328536 1562806531</internalNodes>
          <leafValues>
            -7.4968957901000977e-01 4.5310813188552856e-01</leafValues></_></weakClassifiers></_>
    <!-- stage 12 -->
    <_>
      <maxWeakCount>7</maxWeakCount>
      <stageThreshold>-1.0882210731506348e+00</stageThreshold>
      <weakClassifiers>
        <_>
          <internalNodes>
            0 -1 44 1431377405 1059184051 -554304257 1026678199
            1490146815 -537343557 368795391 -8650753</internalNodes>
          <leafValues>
            -5.0400000810623169e-01 6.7811763286590576e-01</leafValues></_>
        <_>
          <internalNodes>
            0 -1 22 -586434625 -46986504 -832440122 2100546202
            1160497342 -880080672 -2010472785 250257810</internalNodes>
          <leafValues>
            -5.5361008644104004e-01 5.5960613489151001e-01</leafValues></_>
        <_>
          <internalNodes>
            0 -1 91 -511508085 -238477277 16780485 2068441227 307854
            193012106 33851035 1133413546</internalNodes>
          <leafValues>
            -7.1419399976730347e-01 4.2357942461967468e-01</leafValues></_>
        <_>
          <internalNodes>
            0 -1 85 1755116739 -628585830 -1065025023 -562000608
            -938293093 -561346559 -851264637 -389848792</internalNodes>
          <leafValues>
            -6.4030915498733521e-01 4.7002509236335754e-01</leafValues></_>
        <_>
          <internalNodes>
            0 -1 123 -1307067542 -682802907 -1756154832 487658246
            1375832857 1132757251 -2128082456 -1143502950</internalNodes>
          <leafValues>
            -6.4390838146209717e-01 4.6193721890449524e-01</leafValues></_>
        <_>
          <internalNodes>
            0 -1 76 -615663631 1060181845 -665708585 869075227 285279863
            288620593 1155581619 535776553</internalNodes>
          <leafValues>
            -7.4053865671157837e-01 4.1711336374282837e-01</leafValues></_>
        <_>
          <internalNodes>
            0 -1 26 -545153149 -90504869 -1069259822 -231694389
            -108523510 -358068094 -909573806 -1615331319</internalNodes>
          <leafValues>
            -6.2105685472488403e-01 4.7878021001815796e-01</leafValues></_></weakClassifiers></_>
    <!-- stage 13 -->
    <_>
      <maxWeakCount>7</maxWeakCount>
      <stageThreshold>-7.8708624839782715e-01</stageThreshold>
      <weakClassifiers>
        <_>
          <internalNodes>
            0 -1 66 -51593995 -1376415499 -1080692737 -67273547
            -1084228226 -18921987 -147457 -1346530373</internalNodes>
          <leafValues>
            -3.8963532447814941e-01 7.1807968616485596e-01</leafValues></_>
        <_>
          <internalNodes>
            0 -1 133 -421362770 -1041202740 1902535134 -1625122302
            -426174861 -1832910655 -2004672384 -877925638</internalNodes>
          <leafValues>
            -6.5079236030578613e-01 5.0137668848037720e-01</leafValues></_>
        <_>
          <internalNodes>
            0 -1 77 538165593 -2108472047 1140916313 1920022047
            -1584864772 -2006541300 -846395159 414907819</internalNodes>
          <leafValues>
            -6.3104432821273804e-01 4.6099311113357544e-01</leafValues></_>
        <_>
          <internalNodes>
            0 -1 7 2119203039 -811249595 7538690 176488577 -1953941609
            -844290943 -1862101509 -1424015104</internalNodes>
          <leafValues>
            -6.1730051040649414e-01 4.5950764417648315e-01</leafValues></_>
        <_>
          <internalNodes>
            0 -1 137 -746642571 -787377983 -1732091789 -572034856
            1086900445 -1040187186 1749568784 -132116855</internalNodes>
          <leafValues>
            -5.2795201539993286e-01 5.7988113164901733e-01</leafValues></_>
        <_>
          <internalNodes>
            0 -1 19 1976952779 -613334863 -259507688 1930641473
            412157081 -1969093882 992482053 992115459</internalNodes>
          <leafValues>
            -6.5462821722030640e-01 4.3869847059249878e-01</leafValues></_>
        <_>
          <internalNodes>
            0 -1 67 -1047402509 -641728188 335928521 1574503425
            -1945843825 -1639923583 155240617 874057613</internalNodes>
          <leafValues>
            -5.7790583372116089e-01 5.2675968408584595e-01</leafValues></_></weakClassifiers></_>
    <!-- stage 14 -->
    <_>
      <maxWeakCount>8</maxWeakCount>
      <stageThreshold>-1.4558178186416626e+00</stageThreshold>
      <weakClassifiers>
        <_>
          <internalNodes>
            0 -1 53 -33751041 -172629775 -268435594 1433793376
            1291832543 1442597119 -1660944389 -1778395145</internalNodes>
          <leafValues>
            -5.2617800235748291e-01 6.2701255083084106e-01</leafValues></_>
        <_>
          <internalNodes>
            0 -1 46 1546636143 -1725374273 -928451909 1091086587
            1480233466 -1892416887 160024972 1249391849</internalNodes>
          <leafValues>
            -6.2719064950942993e-01 4.7827532887458801e-01</leafValues></_>
        <_>
          <internalNodes>
            0 -1 138 -413697419 1619143559 -1023343977 -872243193
            -1135844728 805462179 -888642903 -298364159</internalNodes>
          <leafValues>
            -5.5553036928176880e-01 5.1378160715103149e-01</leafValues></_>
        <_>
          <internalNodes>
            0 -1 12 -208975689 1966276630 -1319058753 403796177
            -402619735 -111639417 -1320627583 800857329</internalNodes>
          <leafValues>
            -6.2776213884353638e-01 4.5331707596778870e-01</leafValues></_>
        <_>
          <internalNodes>
            0 -1 105 -574369322 -761065336 403046404 839323822
            1378191432 -1037549550 1249903615 1116453611</internalNodes>
          <leafValues>
            -7.0263600349426270e-01 3.8699129223823547e-01</leafValues></_>
        <_>
          <internalNodes>
            0 -1 102 2102659822 -619638626 -2097047739 -82498383
            -887299937 -1018887670 -1936502386 -379780882</internalNodes>
          <leafValues>
            -6.9296133518218994e-01 4.0445321798324585e-01</leafValues></_>
        <_>
          <internalNodes>
            0 -1 14 -1852894753 -266337207 1073824031 1963266437
            570616639 -814415795 -1744830455 -1959722513</internalNodes>
          <leafValues>
            -5.9733766317367554e-01 5.1432180404663086e-01</leafValues></_>
        <_>
          <internalNodes>
            0 -1 92 -68026381 -1196449822 1126701815 599367914
            -1358970894 -1360359881 -1547718665 -22040900</internalNodes>
          <leafValues>
            -4.6595740318298340e-01 6.3275295495986938e-01</leafValues></_></weakClassifiers></_>
    <!-- stage 15 -->
    <_>
      <maxWeakCount>8</maxWeakCount>
      <stageThreshold>-4.5442804694175720e-01</stageThreshold>
      <weakClassifiers>
        <_>
          <internalNodes>
            0 -1 17 579399935 -1812140292 2063204095 -67109377 855291647
            -1963136820 1052442623 201313007</internalNodes>
          <leafValues>
            -4.7592386603355408e-01 6.7631703615188599e-01</leafValues></_>
        <_>
          <internalNodes>
            0 -1 50 191009591 -703987689 -1056800489 -1043709950
            272720195 -813629440 -2146500543 -1148796209</internalNodes>
          <leafValues>
            -6.0705620050430298e-01 5.0442934036254883e-01</leafValues></_>
        <_>
          <internalNodes>
            0 -1 129 -1962476670 -1475309565 17490106 -216806806
            1610670711 155747345 -1434221836 -476339525</internalNodes>
          <leafValues>
            -6.6866636276245117e-01 4.2597368359565735e-01</leafValues></_>
        <_>
          <internalNodes>
            0 -1 100 285247677 2064189440 598682 -1626383152 -1610446197
            -1280671734 -429915919 -70283126</internalNodes>
          <leafValues>
            -5.5813068151473999e-01 5.1746892929077148e-01</leafValues></_>
        <_>
          <internalNodes>
            0 -1 15 -1828454470 -1747643592 1073828127 1213302017
            -1272389973 -123600831 134341546 -1642231254</internalNodes>
          <leafValues>
            -6.5680247545242310e-01 4.3456199765205383e-01</leafValues></_>
        <_>
          <internalNodes>
            0 -1 126 -984361685 -744783607 -930823532 -1072988137
            -1610368854 1876623 -903811856 -240934377</internalNodes>
          <leafValues>
            -5.4735213518142700e-01 5.2408361434936523e-01</leafValues></_>
        <_>
          <internalNodes>
            0 -1 65 -587153192 -980351897 54608277 2036983813 -901660535
            -1935628022 805394664 254280704</internalNodes>
          <leafValues>
            -7.5315058231353760e-01 3.7847712635993958e-01</leafValues></_>
        <_>
          <internalNodes>
            0 -1 136 -65126283 -537756714 -1686176086 -1093740726
            -604641284 -187369617 -682659915 -752827512</internalNodes>
          <leafValues>
            -5.1607364416122437e-01 5.5521392822265625e-01</leafValues></_></weakClassifiers></_>
    <!-- stage 16 -->
    <_>
      <maxWeakCount>7</maxWeakCount>
      <stageThreshold>-9.8309844732284546e-01</stageThreshold>
      <weakClassifiers>
        <_>
          <internalNodes>
            0 -1 56 -16778002 -88080385 -1073954818 2146500543 -2052
            -402653185 -4276550 1002053626</internalNodes>
          <leafValues>
            -5.9497207403182983e-01 6.2434327602386475e-01</leafValues></_>
        <_>
          <internalNodes>
            0 -1 101 -2009892037 -801872333 -2094984519 -929172455
            -1072066432 -367425400 1783791627 404708091</internalNodes>
          <leafValues>
            -5.8385610580444336e-01 5.3331857919692993e-01</leafValues></_>
        <_>
          <internalNodes>
            0 -1 43 849022997 1228627179 -1449374836 -829878069
            -1576448595 -1398157047 42052288 -360251383</internalNodes>
          <leafValues>
            -6.3735556602478027e-01 4.6743768453598022e-01</leafValues></_>
        <_>
          <internalNodes>
            0 -1 130 -706753212 -715157557 -855707650 1592143807
            2102167010 -1494413786 -557002793 -410090194</internalNodes>
          <leafValues>
            -5.1364272832870483e-01 5.8059054613113403e-01</leafValues></_>
        <_>
          <internalNodes>
            0 -1 74 -2009599169 -794066765 16777282 1082982674
            -145391548 -667910076 -335044421 -1895137099</internalNodes>
          <leafValues>
            -6.9633203744888306e-01 4.3390920758247375e-01</leafValues></_>
        <_>
          <internalNodes>
            0 -1 8 1232902623 -251618541 -1710515439 -1694412265
            -1560244081 -635785208 -1815415863 899273865</internalNodes>
          <leafValues>
            -5.9149247407913208e-01 4.6772608160972595e-01</leafValues></_>
        <_>
          <internalNodes>
            0 -1 78 -1122698085 -1129004860 -2088689408 -1433583542
            -1441815801 -1106602235 -410345464 535672971</internalNodes>
          <leafValues>
            -6.1974555253982544e-01 4.7054073214530945e-01</leafValues></_></weakClassifiers></_>
    <!-- stage 17 -->
    <_>
      <maxWeakCount>8</maxWeakCount>
      <stageThreshold>-1.0948791503906250e+00</stageThreshold>
      <weakClassifiers>
        <_>
          <internalNodes>
            0 -1 80 -256740877 -1326221825 -1157644291 -419465226
            -1330528265 -1074364425 -1275872257 -1191755777</internalNodes>
          <leafValues>
            -4.4408252835273743e-01 6.7772966623306274e-01</leafValues></_>
        <_>
          <internalNodes>
            0 -1 124 -212346842 -938502213 5395612 -1290612221
            -1071450505 -1868177356 -1706573580 -131405265</internalNodes>
          <leafValues>
            -6.1197054386138916e-01 5.1288270950317383e-01</leafValues></_>
        <_>
          <internalNodes>
            0 -1 27 -257242417 -536913668 2145358847 2144295099
            -1105400601 -10756629 300937454 -1785094963</internalNodes>
          <leafValues>
            -4.4194370508193970e-01 6.0249269008636475e-01</leafValues></_>
        <_>
          <internalNodes>
            0 -1 118 -5775378 2130534140 2138893689 1575818374
            -648508754 331128316 416910986 -3205393</internalNodes>
          <leafValues>
            -4.4134551286697388e-01 5.9365665912628174e-01</leafValues></_>
        <_>
          <internalNodes>
            0 -1 114 -473828404 -587104104 327255568 1259176400
            163154443 1679859864 692713451 1978607789</internalNodes>
          <leafValues>
            -6.5264683961868286e-01 4.1940906643867493e-01</leafValues></_>
        <_>
          <internalNodes>
            0 -1 39 927094783 -745397542 -863761479 1074498114
            -1575775093 -1633023286 -1073739639 -1307810679</internalNodes>
          <leafValues>
            -6.0825359821319580e-01 4.5867103338241577e-01</leafValues></_>
        <_>
          <internalNodes>
            0 -1 128 -750565750 -610711651 712735322 -617355456
            -1494553720 -1715122355 -1307444293 -241458853</internalNodes>
          <leafValues>
            -4.6905025839805603e-01 6.2437951564788818e-01</leafValues></_>
        <_>
          <internalNodes>
            0 -1 71 -2012639711 -928660462 8446021 -934919898 -637173638
            -360693628 -2004639728 -1367697345</internalNodes>
          <leafValues>
            -6.2683695554733276e-01 4.7567448019981384e-01</leafValues></_></weakClassifiers></_>
    <!-- stage 18 -->
    <_>
      <maxWeakCount>7</maxWeakCount>
      <stageThreshold>-6.9098585844039917e-01</stageThreshold>
      <weakClassifiers>
        <_>
          <internalNodes>
            0 -1 21 2016975533 -111830795 -86707213 -1313737999 75262188
            1504299642 -706740993 -1156358153</internalNodes>
          <leafValues>
            -3.4990438818931580e-01 6.9907879829406738e-01</leafValues></_>
        <_>
          <internalNodes>
            0 -1 69 -1414266941 -640915006 1209860420 -649772733
            -1606301481 -863467360 4704310 -1002074079</internalNodes>
          <leafValues>
            -5.9096521139144897e-01 5.0336951017379761e-01</leafValues></_>
        <_>
          <internalNodes>
            0 -1 88 3182801 1561407744 159485975 -1785752865 -1653440361
            -636845695 302612911 262822285</internalNodes>
          <leafValues>
            -5.3022819757461548e-01 5.2582144737243652e-01</leafValues></_>
        <_>
          <internalNodes>
            0 -1 114 -68419870 -475865400 18358272 -545799461 37225898
            1816196540 -412483649 -274728451</internalNodes>
          <leafValues>
            -4.8156252503395081e-01 5.7434290647506714e-01</leafValues></_>
        <_>
          <internalNodes>
            0 -1 36 -1664540545 489726041 50858406 -613351357
            -1195733917 -1966473142 -2055013853 -1205230042</internalNodes>
          <leafValues>
            -6.1573898792266846e-01 4.5011717081069946e-01</leafValues></_>
        <_>
          <internalNodes>
            0 -1 10 -1877943529 1934643331 -2013243751 -784252919
            -1400769606 -1171062000 585857 196806689</internalNodes>
          <leafValues>
            -6.1825692653656006e-01 4.6383941173553467e-01</leafValues></_>
        <_>
          <internalNodes>
            0 -1 109 -1043900990 -23134142 1627482114 -571801518
            -1878396349 -360611839 1787015839 893849651</internalNodes>
          <leafValues>
            -6.7521858215332031e-01 4.3087932467460632e-01</leafValues></_></weakClassifiers></_>
    <!-- stage 19 -->
    <_>
      <maxWeakCount>7</maxWeakCount>
      <stageThreshold>-1.1002006530761719e+00</stageThreshold>
      <weakClassifiers>
        <_>
          <internalNodes>
            0 -1 64 -646710514 1078001714 1674212294 1820393547
            1616138240 -1057849328 -17148856 -96818277</internalNodes>
          <leafValues>
            -6.5203249454498291e-01 5.8742135763168335e-01</leafValues></_>
        <_>
          <internalNodes>
            0 -1 117 146764687 546836875 151079440 674796422 809607632
            136382883 -70155851 496871851</internalNodes>
          <leafValues>
            -6.8102753162384033e-01 4.3093469738960266e-01</leafValues></_>
        <_>
          <internalNodes>
            0 -1 97 -576530210 2065248769 -897565044 2105089161
            -83712786 -126729200 -1937065234 -569711736</internalNodes>
          <leafValues>
            -5.3711491823196411e-01 5.4150897264480591e-01</leafValues></_>
        <_>
          <internalNodes>
            0 -1 30 2069614963 -2093274739 -159182845 -999980891
            281186959 -1421809331 840368494 -2003271179</internalNodes>
          <leafValues>
            -6.3838028907775879e-01 4.3380939960479736e-01</leafValues></_>
        <_>
          <internalNodes>
            0 -1 6 -653111119 -620343228 -125790837 -754896512 302171305
            -1349869560 1342811025 -1693837264</internalNodes>
          <leafValues>
            -5.1997363567352295e-01 5.4740983247756958e-01</leafValues></_>
        <_>
          <internalNodes>
            0 -1 116 1042937635 12732039 344113426 1561391946
            -1066958464 638517760 1040353409 452252194</internalNodes>
          <leafValues>
            -6.7636293172836304e-01 3.8852623105049133e-01</leafValues></_>
        <_>
          <internalNodes>
            0 -1 62 -2060911731 -8312320 -1977053151 758334248
            1122042293 -880063558 -2079471316 254773898</internalNodes>
          <leafValues>
            -6.4684414863586426e-01 4.2453658580780029e-01</leafValues></_></weakClassifiers></_>
    <!-- stage 20 -->
    <_>
      <maxWeakCount>9</maxWeakCount>
      <stageThreshold>-9.7873842716217041e-01</stageThreshold>
      <weakClassifiers>
        <_>
          <internalNodes>
            0 -1 7 1792998143 -846533905 -1996510530 143553527
            -823136273 -292823473 -989899025 -1380986017</internalNodes>
          <leafValues>
            -4.5208567380905151e-01 6.6303831338882446e-01</leafValues></_>
        <_>
          <internalNodes>
            0 -1 79 -398370323 -1964702933 8915090 713293859 -1465537911
            -1031273855 -517389651 -391566705</internalNodes>
          <leafValues>
            -6.0414713621139526e-01 4.8152527213096619e-01</leafValues></_>
        <_>
          <internalNodes>
            0 -1 89 -858989346 -582134528 -1959558545 1476462594
            -1534590885 -935132286 173164968 -1431631110</internalNodes>
          <leafValues>
            -6.3574117422103882e-01 4.3495061993598938e-01</leafValues></_>
        <_>
          <internalNodes>
            0 -1 4 1137603 -585297872 864357137 1495351300 -1277516924
            -103153128 987078794 447482893</internalNodes>
          <leafValues>
            -5.8255863189697266e-01 4.9276891350746155e-01</leafValues></_>
        <_>
          <internalNodes>
            0 -1 11 1079136343 1908429152 -2011950305 -80657647
            1300254837 -1466806140 134844091 502072453</internalNodes>
          <leafValues>
            -6.0252344608306885e-01 4.5967873930931091e-01</leafValues></_>
        <_>
          <internalNodes>
            0 -1 127 -1246495986 -1795058644 823564220 990622471
            285280546 276856833 172097738 -1374950225</internalNodes>
          <leafValues>
            -6.3397663831710815e-01 4.3962705135345459e-01</leafValues></_>
        <_>
          <internalNodes>
            0 -1 23 288726013 -9453438 -2110521056 406965248 1102578511
            -1710716535 137232553 -1218344933</internalNodes>
          <leafValues>
            -5.9549462795257568e-01 4.7246247529983521e-01</leafValues></_>
        <_>
          <internalNodes>
            0 -1 121 -1276134737 8223692 854571750 -1739473322
            -1346590594 -1880228052 -337652533 -572666165</internalNodes>
          <leafValues>
            -5.1540589332580566e-01 5.4119771718978882e-01</leafValues></_>
        <_>
          <internalNodes>
            0 -1 0 -1474809097 -418381759 -1073500025 -183363580
            -1459517261 -134176754 1208001313 444730501</internalNodes>
          <leafValues>
            -6.2163031101226807e-01 4.2796221375465393e-01</leafValues></_></weakClassifiers></_>
    <!-- stage 21 -->
    <_>
      <maxWeakCount>8</maxWeakCount>
      <stageThreshold>-1.1861863136291504e+00</stageThreshold>
      <weakClassifiers>
        <_>
          <internalNodes>
            0 -1 61 -1526816088 -619313401 805507601 -1861459965
            -1375141869 -1945632766 -1543404903 -1371328253</internalNodes>
          <leafValues>
            -7.3360657691955566e-01 5.4060506820678711e-01</leafValues></_>
        <_>
          <internalNodes>
            0 -1 87 857739507 893059329 51845503 431446315 532043519
            -2223785 2120120303 -289447617</internalNodes>
          <leafValues>
            -4.9727335572242737e-01 5.3470855951309204e-01</leafValues></_>
        <_>
          <internalNodes>
            0 -1 95 -2146315953 1351623009 268513303 -233569505
            536904706 -99016380 -1668984765 705423838</internalNodes>
          <leafValues>
            -5.3909909725189209e-01 5.0604206323623657e-01</leafValues></_>
        <_>
          <internalNodes>
            0 -1 111 -370147617 -303203670 959447580 -579517824
            -1987006786 1315180460 1928698623 2144280127</internalNodes>
          <leafValues>
            -4.9234822392463684e-01 5.2810698747634888e-01</leafValues></_>
        <_>
          <internalNodes>
            0 -1 104 1079443533 2143449472 -770366768 -610532712
            34925200 -1400098408 -939256804 -1450536856</internalNodes>
          <leafValues>
            -5.3164297342300415e-01 5.2431184053421021e-01</leafValues></_>
        <_>
          <internalNodes>
            0 -1 135 -1009286909 -309821053 1092513808 -1832365040
            -224287404 1661097601 -1550855536 -358094797</internalNodes>
          <leafValues>
            -6.2024706602096558e-01 4.1836988925933838e-01</leafValues></_>
        <_>
          <internalNodes>
            0 -1 84 -1099379533 -785782222 -654311821 1390148095
            89919603 1531367253 1568294911 -1154820870</internalNodes>
          <leafValues>
            -4.7685736417770386e-01 6.0293060541152954e-01</leafValues></_>
        <_>
          <internalNodes>
            0 -1 122 508673843 15610579 1292095506 1503674371 1564768
            -1959611998 402674144 415426471</internalNodes>
          <leafValues>
            -6.5308135747909546e-01 4.3301048874855042e-01</leafValues></_></weakClassifiers></_></stages>
  <features>
    <_>
      <rect>
        2 4 8 2</rect></_>
    <_>
      <rect>
        2 5 13 4</rect></_>
    <_>
      <rect>
        3 11 8 2</rect></_>
    <_>
      <rect>
        5 5 7 4</rect></_>
    <_>
      <rect>
        6 6 5 3</rect></_>
    <_>
      <rect>
        7 0 11 5</rect></_>
    <_>
      <rect>
        7 4 5 2</rect></_>
    <_>
      <rect>
        7 7 11 2</rect></_>
    <_>
      <rect>
        8 0 5 5</rect></_>
    <_>
      <rect>
        8 3 11 4</rect></_>
    <_>
      <rect>
        8 5 6 2</rect></_>
    <_>
      <rect>
        8 12 6 2</rect></_>
    <_>
      <rect>
        9 1 6 3</rect></_>
    <_>
      <rect>
        9 4 5 2</rect></_>
    <_>
      <rect>
        9 10 5 2</rect></_>
    <_>
      <rect>
        10 1 7 5</rect></_>
    <_>
      <rect>
        10 4 10 4</rect></_>
    <_>
      <rect>
        10 4 10 5</rect></_>
    <_>
      <rect>
        10 5 10 4</rect></_>
    <_>
      <rect>
        11 7 12 2</rect></_>
    <_>
      <rect>
        12 5 10 3</rect></_>
    <_>
      <rect>
        12 5 11 4</rect></_>
    <_>
      <rect>
        12 7 10 2</rect></_>
    <_>
      <rect>
        12 7 12 2</rect></_>
    <_>
      <rect>
        13 6 11 3</rect></_>
    <_>
      <rect>
        13 7 5 2</rect></_>
    <_>
      <rect>
        14 0 12 3</rect></_>
    <_>
      <rect>
        14 4 4 2</rect></_>
    <_>
      <rect>
        14 6 5 2</rect></_>
    <_>
      <rect>
        14 6 5 3</rect></_>
    <_>
      <rect>
        14 7 8 4</rect></_>
    <_>
      <rect>
        14 8 5 2</rect></_>
    <_>
      <rect>
        15 5 8 3</rect></_>
    <_>
      <rect>
        15 6 8 4</rect></_>
    <_>
      <rect>
        15 8 9 2</rect></_>
    <_>
      <rect>
        15 9 5 2</rect></_>
    <_>
      <rect>
        16 4 7 4</rect></_>
    <_>
      <rect>
        16 5 8 3</rect></_>
    <_>
      <rect>
        16 6 3 2</rect></_>
    <_>
      <rect>
        16 6 7 2</rect></_>
    <_>
      <rect>
        16 8 3 1</rect></_>
    <_>
      <rect>
        16 9 3 1</rect></_>
    <_>
      <rect>
        16 9 7 2</rect></_>
    <_>
      <rect>
        17 4 6 3</rect></_>
    <_>
      <rect>
        17 5 6 3</rect></_>
    <_>
      <rect>
        17 7 4 1</rect></_>
    <_>
      <rect>
        17 7 5 2</rect></_>
    <_>
      <rect>
        17 7 7 2</rect></_>
    <_>
      <rect>
        17 7 7 3</rect></_>
    <_>
      <rect>
        18 4 6 3</rect></_>
    <_>
      <rect>
        18 5 1 4</rect></_>
    <_>
      <rect>
        18 5 7 3</rect></_>
    <_>
      <rect>
        18 5 7 4</rect></_>
    <_>
      <rect>
        18 6 7 3</rect></_>
    <_>
      <rect>
        18 8 2 2</rect></_>
    <_>
      <rect>
        18 9 2 1</rect></_>
    <_>
      <rect>
        18 9 2 2</rect></_>
    <_>
      <rect>
        18 9 6 2</rect></_>
    <_>
      <rect>
        19 0 10 6</rect></_>
    <_>
      <rect>
        19 1 6 3</rect></_>
    <_>
      <rect>
        19 4 6 4</rect></_>
    <_>
      <rect>
        19 5 1 3</rect></_>
    <_>
      <rect>
        19 7 6 2</rect></_>
    <_>
      <rect>
        19 9 4 2</rect></_>
    <_>
      <rect>
        19 10 2 1</rect></_>
    <_>
      <rect>
        20 2 4 2</rect></_>
    <_>
      <rect>
        20 3 5 5</rect></_>
    <_>
      <rect>
        20 4 3 2</rect></_>
    <_>
      <rect>
        20 5 4 2</rect></_>
    <_>
      <rect>
        20 7 2 1</rect></_>
    <_>
      <rect>
        20 7 3 2</rect></_>
    <_>
      <rect>
        20 8 1 1</rect></_>
    <_>
      <rect>
        20 8 5 2</rect></_>
    <_>
      <rect>
        20 9 3 1</rect></_>
    <_>
      <rect>
        20 9 3 2</rect></_>
    <_>
      <rect>
        20 10 2 1</rect></_>
    <_>
      <rect>
        20 10 5 1</rect></_>
    <_>
      <rect>
        20 11 6 2</rect></_>
    <_>
      <rect>
        21 1 5 6</rect></_>
    <_>
      <rect>
        21 3 2 5</rect></_>
    <_>
      <rect>
        21 5 2 2</rect></_>
    <_>
      <rect>
        21 7 2 1</rect></_>
    <_>
      <rect>
        21 9 3 2</rect></_>
    <_>
      <rect>
        21 10 2 2</rect></_>
    <_>
      <rect>
        21 11 3 1</rect></_>
    <_>
      <rect>
        22 6 5 3</rect></_>
    <_>
      <rect>
        22 7 2 2</rect></_>
    <_>
      <rect>
        22 10 3 1</rect></_>
    <_>
      <rect>
        22 11 3 1</rect></_>
    <_>
      <rect>
        23 5 2 2</rect></_>
    <_>
      <rect>
        23 7 3 1</rect></_>
    <_>
      <rect>
        23 9 1 1</rect></_>
    <_>
      <rect>
        23 9 3 1</rect></_>
    <_>
      <rect>
        23 10 2 1</rect></_>
    <_>
      <rect>
        23 10 2 2</rect></_>
    <_>
      <rect>
        23 10 5 3</rect></_>
    <_>
      <rect>
        24 4 2 4</rect></_>
    <_>
      <rect>
        24 7 2 1</rect></_>
    <_>
      <rect>
        24 9 1 2</rect></_>
    <_>
      <rect>
        24 10 1 1</rect></_>
    <_>
      <rect>
        24 10 2 1</rect></_>
    <_>
      <rect>
        24 10 5 2</rect></_>
    <_>
      <rect>
        25 3 2 4</rect></_>
    <_>
      <rect>
        25 7 1 1</rect></_>
    <_>
      <rect>
        25 7 4 2</rect></_>
    <_>
      <rect>
        25 8 1 1</rect></_>
    <_>
      <rect>
        25 8 1 2</rect></_>
    <_>
      <rect>
        25 9 1 2</rect></_>
    <_>
      <rect>
        25 10 1 1</rect></_>
    <_>
      <rect>
        26 7 1 1</rect></_>
    <_>
      <rect>
        26 8 1 1</rect></_>
    <_>
      <rect>
        26 8 1 2</rect></_>
    <_>
      <rect>
        26 9 1 1</rect></_>
    <_>
      <rect>
        26 9 1 2</rect></_>
    <_>
      <rect>
        26 10 1 1</rect></_>
    <_>
      <rect>
        27 2 7 4</rect></_>
    <_>
      <rect>
        27 4 4 3</rect></_>
    <_>
      <rect>
        27 8 4 2</rect></_>
    <_>
      <rect>
        27 9 1 2</rect></_>
    <_>
      <rect>
        28 3 3 3</rect></_>
    <_>
      <rect>
        28 3 6 3</rect></_>
    <_>
      <rect>
        28 10 3 1</rect></_>
    <_>
      <rect>
        29 4 3 3</rect></_>
    <_>
      <rect>
        29 9 6 3</rect></_>
    <_>
      <rect>
        30 4 6 3</rect></_>
    <_>
      <rect>
        30 6 5 3</rect></_>
    <_>
      <rect>
        30 6 6 2</rect></_>
    <_>
      <rect>
        30 6 6 4</rect></_>
    <_>
      <rect>
        30 8 1 1</rect></_>
    <_>
      <rect>
        30 9 5 2</rect></_>
    <_>
      <rect>
        31 1 4 3</rect></_>
    <_>
      <rect>
        31 3 5 4</rect></_>
    <_>
      <rect>
        31 4 5 4</rect></_>
    <_>
      <rect>
        31 7 4 2</rect></_>
    <_>
      <rect>
        31 7 5 3</rect></_>
    <_>
      <rect>
        33 9 3 1</rect></_>
    <_>
      <rect>
        35 3 2 2</rect></_>
    <_>
      <rect>
        36 2 2 3</rect></_>
    <_>
      <rect>
        37 0 2 6</rect></_></features></cascade>
</opencv_storage>
